{"layers": [{"w": [[0.692762568993745, 0.5019043267324096, 0.23268978569599758, -0.7349680253825039, 1.045148735720269, -0.2633125951096039, -0.32756953998674593, 1.5222303899754992, 0.24004313909575425, -0.6331489703866364, 1.051113062642839, -0.19825251994677207, 0.8705515973168341, -0.45379974436162546, -0.4149657049453825, -0.586405864086234, 0.5382365782440818, -1.2475258152558637, 0.8959097152339913, -0.5761362071678018, 1.3716742430609652, 0.5513825590956734, -0.41255969685880634, 0.9862888405808546, 0.782922064196941, -0.35457730617865163, 2.11798205637091, -1.1103612171919366, -1.308161770455794, 1.3891246822311822, 0.37717511863200537, -1.1132783201698908, -0.4068099166638901, -0.12854837873861952, 0.5665636836681639, 0.6625545833904015, 1.224057407950118, 0.4080208164815904, 1.2793240004967956, 1.675148407546655, 0.9090013319107895, 0.5571091632619496, 0.15355162880687026, -0.6640012077332791, 0.7666503896240703, 0.33860721345519906, 1.0953471190095698, 0.9695499777190459, -0.07024093909920867, 0.27768548810186666, 1.1631069390435713, 0.6814506344588594, 0.21141598176634233, 0.36161330742256426, 1.208388240776494, 0.6931127557055291, 0.9080386530863963, -0.14093909943610813, 0.39748053050529364, -1.0427540850835408, -0.1758771873466097, 0.18983186959321005, 0.0031814342747746318, 0.44037466294486755], [-0.6530742101548416, -0.18112776485263882, 0.5831421607907485, -0.8818085436570987, 0.053632510570448357, 0.19497766087509885, 0.21109095574121906, 0.03441437302127478, -0.6446091298322206, -0.25631678130350954, -0.14770862486251585, -0.016745969604689073, 0.9595199555013452, -0.786382340403374, -0.9737965114984451, -0.8725461084788615, -0.9438918344362811, 0.7691310760002966, 0.6505042644738447, -0.7168272145275175, -0.2210694773844017, 1.0907253685935836, -0.19438181281502234, 0.005323840327327054, 0.3583495868247417, -0.41552153603117464, 0.15590206294669762, 0.7049329403032929, -0.4884319554782893, -0.058935380607625425, 0.19678908494431196, -0.5050723931252891, 0.4504194089482794, -0.06776066228365135, 0.2675576051762689, 0.8378246327737917, 0.3818620126651113, -0.8600499318257321, -0.6588562461954101, 0.0770654749054489, 0.9082509495377143, -1.937136070307987, 0.18451955196403538, -0.34766904082414335, -1.0505112971283903, 0.24998306390080238, 0.4504564691750027, 0.05697898095418, 0.1671605526516538, -1.0063812025220016, 0.17055744593981018, -0.9579078062587892, -0.3560468617018534, -0.0011734954989034937, 1.2177685278139694, -0.11407585764938524, -0.11841745553265086, -1.933357661644401, 0.07886779397060388, -0.13376316439051236, -0.8786237459907059, 1.0546978075780944, 0.2839559467589749, -0.060553467040579484], [2.6227181793765464, -0.1286206946043304, 1.8439075204202455, -0.011224078399803276, 0.1810925460738637, 1.854983465533056, 1.762175454791722, -1.8560077390037109, -0.8175669914183461, 0.5342186844003095, -1.4196322677512019, 0.4499222366099727, -0.3636435924445554, -1.1376921743744361, -0.005967088408677328, 1.5717064387859039, 0.7253992442163856, -0.23452317220072844, 2.648292868999654, -0.7009455233501386, -0.6678020383418051, -0.7617581328996189, -0.13752727450409913, 1.3389680600176719, 0.009480140215943239, 1.4896605930682552, 1.0973747737130286, -0.4413003455022849, 0.7092548377755293, -0.15198051786091127, -1.160942122518943, 1.8249204424569827, -0.04792071743775855, -0.46098613108008807, 1.4309581469487365, 1.4131760217729512, 1.22835240915784, 1.165941675957295, 0.17332499948855043, 1.2687102734484474, -1.0019084493896846, -0.12403682577132161, -0.415696323738183, -0.26217721620106726, 0.9373200797442595, -0.4878734588502086, 0.2778745196932432, -0.0764499163381129, 0.28910390264553293, -0.04742497252642852, 0.7590663687389706, 0.5030098588158002, -0.04597734861841025, 0.2204781980894953, 1.8460249358907044, 0.37016378007556117, -0.47330131593384306, 0.0238300914183757, 0.70589582004412, 0.2706384382493099, -0.13706033505162574, 0.3823996496442086, -0.4093767261401791, -0.8389527009371275], [-0.46920950289937524, -2.8227862645969273, 0.40868894510851833, 2.190413506311279, -1.3723639562599455, -0.017809588077601052, -0.18097375240502758, 3.4708989845117375, -3.4808926894736243, 0.5671749536152452, 0.9318432915708473, -1.7847273889852229, -1.2828891357863987, 0.2487638622029496, 0.1571072768016147, 1.5810813923910003, -0.034285594280699445, -0.4171175657577143, -1.2325313596093954, -0.5564840662519897, -4.296033924441878, 0.594530905427457, 1.225543004363002, -0.049126761018739265, -1.956540611582074, 0.07100474084119344, -1.4780527736779303, 1.0664571556927591, -0.9938163738256162, 1.50711917533418, -2.401036596540805, 1.5633187026893252, 0.945487392195037, -0.35083139743009584, -1.2718402921260172, -1.0385770597635138, -0.8236960075303389, -1.2733431210203514, -0.8808247453838599, -0.40976669966785717, -2.8372013035079613, -0.15167037125989888, 0.8050512332285712, -0.17720212703060667, 2.9001415617362207, -1.307279660193573, -0.8949524657208162, -1.0752419717332713, -2.8142349609266764, 0.7988488355712344, -0.6557368596073381, -0.23524064143345078, 2.5599963834667223, 0.6968627683203756, -0.6212745644820176, -2.9374980509660817, 3.3281839962374877, -0.34923539777680873, -1.8874847950184843, -0.48172884190286175, -1.0078843283812917, -0.688724808907571, -3.326863715847974, 0.18094721224367538], [0.24403221122195842, 4.947464518478335, -1.1497722729433195, -1.8322135274331501, -0.7985469847108506, -0.1590951621477868, -0.2442789445325325, -0.8054565124220963, -2.268893905245724, -0.5918889950168219, -1.6695770864532278, -0.4429651585258651, -0.2698167101968035, 0.6215858533397338, 0.744694838788506, -1.19964144188482, 0.5578115912669822, 0.1309389598858761, -0.3617561391217726, 1.3339593917275963, 1.622552963902683, 0.5671068011168937, -1.0773293391670347, -0.21200667614771582, 0.5855951150978246, -1.8173622514076095, -0.003695491711005875, 0.8960900781946999, -0.6478359949129551, 0.1542226236835707, 0.6895480268554879, -1.4350353992243194, -2.9163518849365038, 0.47863207481563236, -1.8275921864536033, -0.4628526455614385, -1.2855722175580566, -0.8163207236802297, 1.1256075704101853, 0.6034111573529477, -0.36875866959132747, 0.5673524768382454, -0.9687306137892312, 0.07952515707192584, -0.5328771283572638, -1.7948809976685096, 0.3986269383200504, 5.052853885117113, -1.3682178048444116, -0.28541752619432187, -0.7861043265974034, 0.20772185486343397, -1.524310023012162, -2.21478349552462, -1.4540973305010465, 0.8418576417416159, -1.670988223533602, 0.32134430555380966, 1.3045317240900662, -1.1248360784012041, 0.27594265506242505, -0.049411681083254784, -1.6857047887801464, -0.6084346482107255], [-1.1696593509948492, -0.16987176116095237, -0.4123003280192524, 0.44049251135215994, 1.4013776867114192, 0.5343636346687606, -0.15696205965996868, -1.0561573570264293, -0.7647600263330606, 1.1063248639179626, -2.891183236103538, 0.7653637603077319, -0.8188938166824754, 0.7761644259354372, 0.005488293701024268, -0.6703201711871601, -0.8907419017406545, -1.0856314860387135, 0.19858380052236083, 0.5235305399785614, -0.4967023613179101, 1.360229513100305, 1.464938052696135, -0.8673946189876195, -0.0006683389947042599, 1.6492698671558974, -0.23474529349254764, -0.3465436432588132, 0.6465947956986265, 2.405747845800832, 0.34899964428039126, -0.336688799981691, -0.7795980771131311, 0.23527824313192935, -0.04315295781154427, 0.18668041306339989, -1.3897016888858293, -0.9113948145440469, 0.3126461839456506, -2.4842267180075317, 1.0915943745495813, -1.2756834041589573, -0.7728488491158757, -0.1791756865451988, -0.481818956527419, 1.5448623796896357, 0.05581282054672256, -0.6317337527123208, 2.1136794834275103, -0.39556241218218136, 0.1206983552495659, -1.6966175206743204, -0.5145598744248774, 0.06041628029615895, -1.3445545586598366, 0.9545844436143969, -0.5291088283521168, 0.7368442519603037, -0.1669788001867458, 0.7927799319286477, -0.19667659643390684, 1.3250664905647116, 1.1426302521582374, -0.26921501778900214], [-1.4798904479798423, 5.129702519576866, -2.1659736377654544, -5.09899266122135, -1.446334178348784, 0.2639184468657021, 0.30848799513376945, -5.508371095951183, 2.6391756890485976, -1.13410623848845, -3.3152884941422562, -0.19259435666586155, 1.9106555055577747, 0.32843072037968635, 0.5858640972983742, -4.36015654509714, -2.0606440506526047, 0.125390649754511, 1.6324610993654893, 1.5233647397073147, 8.642959636050092, -0.5202029993221261, -4.037732205990307, -2.03811231704129, 4.092726933827218, -1.5444421902423058, 0.010779669546552987, -0.23975561255621713, -0.9339215271353755, -3.189326922788702, 0.7668311202042801, -3.16602719115622, -1.992335262400545, 1.283530352784076, 0.16601186364513074, -2.1699361376802875, -2.3780005589859656, -1.8583690579664245, -0.8910751800529679, -1.9011155681040897, 1.8370476714400719, 0.35731249744500804, -5.779709259533966, 0.1418453234078829, -4.7476456467411365, 0.005032021865032817, -2.7594391141871233, 4.069208659546112, 1.2336805800054491, 0.7264643188632988, -1.5234553448918744, -2.360679511465401, -5.056705666402621, -1.9166099696781451, -3.2221996231552934, 5.807598831122449, -5.330533094440071, 0.1555980409218141, 4.647983111634711, -1.5823783271112284, -0.26445736062459996, -0.4437078282896836, 1.8661051529491364, -0.5758146048340101], [-0.5186460651993452, -1.0991883297032814, 0.7451213920315631, 0.04303063416023185, -0.14821278011225258, -0.4514906810333935, 0.5705801009016311, -0.4063149040008322, -0.41436120077158123, -0.5558172659857825, -0.9639193142728921, -0.26296399553036276, 0.36403019686835864, 0.6707751899289461, 0.6939939251584694, -0.040121003272116505, -0.2970317180218661, 0.41579988003864315, 0.4792855836959927, 0.9408403196015995, -0.09242508168934635, 0.8676291523821663, 0.2926176597617774, 0.7311048155094568, -1.0671388007702787, 0.6667000569864051, -0.3234694099836837, -0.11513816964167767, -0.8137261553188554, -0.13242086125878327, -0.16348490439945096, -0.38098650701449366, -0.768743404968434, 0.9433049618042763, 0.3431934012310522, 0.33871804579499976, 1.0062871287293502, -0.659371226339323, -0.1600814288805237, -0.28712959672820393, -0.47229328458062847, 1.592723815298277, 0.32885453491014444, -0.705089205670293, -0.23985196143838855, -0.00656325704233675, -0.2456906411458634, -0.2757439431746001, 0.1453723884303121, 0.5315386602089517, 0.3141876220993574, -0.5854769661729285, -0.33354683627859705, 0.5553483020655148, 0.2953806332459308, -0.15565409477004438, -0.2989276552632312, 0.16025493073195748, -0.3925699193271734, 0.2764945064414275, -0.5242755798008253, -0.22742803807486556, -0.06743652773546176, -0.5487132760389236]], "b": [[5.780471293843778, 5.116650602523601, 2.46290186244818, 4.374376667758812, 4.134791164613761, -0.6169026694654778, -1.1260855700090164, 4.137367691022706, 4.829985982635229, 1.1974157388963247, 3.776954248371201, 1.891298855603553, 1.2243850909786447, -0.5081002330263004, -0.908651444418337, 3.9989550206249223, 6.3056139456827145, -0.7026615375718889, 1.8800182065561346, 0.6017491168225024, 4.721637759444513, 0.46211853755032234, 4.382312723442254, 4.462820881539799, 2.419434942705742, 1.6411844842845422, 5.953577304101977, 0.29397056247133335, 2.4728641123084825, 5.852488494972564, 1.779911861262791, 3.296719955769523, 3.676810500947667, 0.5645750886086951, 5.366216655620657, 4.353932299653504, 5.681545352164161, 6.861780334995458, 5.865656281778242, 8.252072825806417, 2.9331226946452325, -1.9421532591660744, 5.34891959995869, -0.0692757168495212, 5.547934440654982, 2.270349506800505, 6.808738998091492, 5.334706499655428, 3.3212518841178884, -0.7395740563936868, 4.348035064440146, 7.5030626466964625, 4.916820420650252, 2.886816702554799, 7.448089383176813, 3.4541012809944966, 5.3980388248895395, -0.5818567761662709, 2.3076023246070356, 1.436062983174549, -0.366678031515375, 2.7232534308835334, 3.6559405743123996, 0.40541840235938975]]}, {"w": [[0.30913772319890614, 0.32581448442097427, 0.015412036569627367, -0.14582703000818642, -0.05243357892032705, 0.5347484483043369, 0.0915202520724845, -0.21731065266500257, 1.6797380083358366, 0.07048937747202635, -0.4352931170767022, 0.1994401757803989, 0.09399790723846957, 1.1261234854386077, -0.07005960434981603, 0.06792022533843126, -0.40610251746085396, 0.20027279539179912, 0.049225024574815215, 3.127145639398812, -0.22942157724369386, 0.2200630215341915, -0.29252014461657727, -0.23946324874194191, -0.07924477401532434, -0.28203971096968805, 1.1110904290251105, 1.0222684647566451, 0.7525200620368182, -0.19807780775076664, -0.3226416776116584, 0.9858784997328387, 0.5852566112757519, -0.06626877405006332, -0.3363068561588863, 0.1931404140781978, 0.1868251907098619, 0.06427322639235691, 0.21616360998399098, -0.0837574105506281, 0.20094777871003155, -0.1674976475738513, 0.35556616542919006, 0.05182071119712688, -0.10798492835067311, 0.26166846749995326, -0.14798089005422577, -0.03602122819719466, 0.3568040942473937, -0.23837550186253667, 0.39907517679846805, 2.135708371632171, 0.3597603927738586, 0.7632985316530487, 0.09499368398665134, 0.04178138055105045, -0.22942629108010648, -0.11172836706380279, 2.981208942152676, 0.12173521780008316, 0.14484330444132948, -0.1308311663773001, -0.04602764441046737, 1.457606931907846], [1.479805438985781, -0.7818995140936984, 0.29777979953599815, 0.2816204216727299, 0.15095569041800286, -0.211651057613738, 0.6384725544196828, -0.11566994570060865, 1.6263292340141489, -0.20591633365607523, -0.06545092633342407, 0.16356675752026095, -0.13560801720747487, 2.3575264146734813, -0.388160474268614, -0.04051816520617965, 1.372516728355947, 0.29704929638355543, 0.2272465295707006, 3.942664854470863, -0.09326490106597313, -0.22024670585218603, 1.140277058190854, 0.43581422847940854, -0.013159976415002375, 0.2373671225053435, 1.2423967382367842, 1.7649432455028393, -0.5930574159859237, 0.5286864302753803, 0.18125048678993294, 1.2892263503060366, -0.44432596554731174, 0.5439349593303363, 0.11995862027288806, -0.6244367120014049, -0.47939166767394886, 0.1723762183507398, 0.07687438165795975, -0.18254671470441408, 0.03680850923500013, -0.10113039983253748, -0.1424917385740266, 0.21093629600757896, -0.20794707703705492, -0.18806177356270148, 0.07826846897263354, 0.6351854653632708, -0.15760145394153952, 1.202872471980377, -0.017042743229272697, 3.2111532422748295, 0.0685705654651325, 1.4837325841229212, -0.07620843149076675, 0.1332106545949916, -0.08180832083212988, -0.01990364854531383, 3.3324085670637955, -0.17071775852871832, 0.48187400531084623, -0.12004210997077534, 0.23243282361816958, 2.5079732975280806], [0.0033146975972660935, 0.11751539607413813, 0.050311456571595935, 0.2976129303198722, 0.10372940856332656, 0.14334555698506316, -0.04700205507730548, -0.3434205458177758, 0.9267510944667849, -0.03030652472128113, -0.23491480367890769, -0.3158116009426712, -0.06941442583725986, 0.5587492197506921, 0.1951354070498841, -0.09680019162759006, 0.16490372535647022, 0.2863276086482149, 0.21542152592032027, 1.5473534869990573, -0.25072717810955997, 0.09458747922526393, -0.12109961313484341, -0.1973291898025151, -0.015298329206244191, 0.19769858875735047, 1.0598022456520262, 0.7441879992596572, 0.06026548253699566, 0.08038883706971987, -0.02028371657054183, 0.8113332998304549, 0.0252367731353325, 0.17098374513734818, -0.11114241167823022, 0.19120200175699853, 0.20303321982024022, -0.15709150700603122, 0.21667415807677803, -0.22364725196876384, 0.11124584207367441, 0.2813435493440906, 0.12862154479508273, 0.1282378539369566, -0.10757472217434431, -0.04233630533377044, -0.2819280442030008, 0.05679704082262516, -0.07622446852847367, 0.41880995708857044, 0.2127926847452569, 1.5093126125188319, 0.579493591273231, 0.29076712661742266, -0.191759657632359, 0.038728156552111814, 0.21643787748754612, 0.12663575457606993, 1.941669720814544, 0.4328456943276049, 0.0022972481113897854, -0.2174852600386022, 0.16862651712946547, 0.7005856585257437], [0.7650531883576743, -0.00448824237985433, -0.27731638478149667, -0.04865495261240714, 0.15097046334064956, -0.13266060367862598, 0.5007071958585289, 0.21871367177439677, 1.40050515207171, -0.27370157511697785, 0.04263955709424584, -0.21704940349795065, 0.151882663281739, 1.2899772689018933, -0.05852570445256731, 0.04366985191654048, -0.06072507696212712, 0.13178612938503095, 0.06257575625229717, 2.1970057887718375, 0.47085652434911013, 0.023904133715533484, 0.2560712906404476, 0.06890773973141308, 0.32507798654118686, 0.10339042071062611, 1.9206750434237236, 1.2973688987801038, 0.15151621395975887, 0.4682611857109936, 0.47798378702051425, 1.6314951251197627, 0.01256537827072758, 0.006841153175374358, -0.07733894882461503, 0.2291419559509097, 0.14896243243245952, -0.29239492963940655, 0.2380241990012568, -0.20093561538587737, 0.2077004963010667, 0.4127412932542307, 0.37411006651914086, 0.08778065057230319, -0.23302737849674418, -0.029611560359541256, 0.16639219522995186, 0.11321037489567651, -0.05480766106592012, 0.45478203415990837, -0.29281134894630967, 2.406601560788787, 0.20848177365732423, 0.5922349876046198, -0.09164733772732891, -0.16394802726793958, 0.07965421473427416, 0.20597220065902505, 2.819876372693283, 0.39008320931645385, 0.41389344028762537, -0.17028735843277967, 0.08517819204969689, 1.3922903579230326], [0.49885456152867774, 0.05784632051109945, -0.8387477133782181, 0.5204125785266036, 0.2720111514543185, 0.6039687423374728, 0.9777014311561173, -0.1585167914731563, 2.0123572519030786, 0.2584071873105046, 0.4615052216456445, 0.18562546420622547, -0.1167542377693718, 1.0868079379520246, -0.05163991904694413, -0.062377843432885424, 0.05251987111813044, 0.8375169643096597, -0.0500795931666674, 3.084899216172288, 0.7541531165903342, -0.27023656384506567, 0.5432737084781908, 0.1783217873633058, 0.9595045829078832, -0.04998958149063866, 1.5605626108342892, 1.4885983073544342, 0.14930627135966143, 0.2650587889745481, 0.18626160594953917, 1.3709161990083718, 0.5250949058032495, 1.3692338263687243, 0.5907835613247505, 0.13440758664250063, -0.6074559678743312, -0.14133389093270035, 0.28567469902459725, -0.12203512845095572, 0.6745119280296052, 0.5092863363985467, 0.19009702434649886, -0.23674697553925397, 0.16330795256887726, 0.7763225779472362, -0.3806018935059751, 0.874594421588486, -0.14577335283114834, 0.5576566411028702, -0.6754942986876102, 2.0926306903682788, 0.4301368789309486, 0.6924851507605034, -0.3315993324409866, 0.2223802739982204, 0.7329779352174052, -0.1963599555494714, 2.98906365076423, 0.2708306833005076, 0.578185737723647, 0.06412885630592327, 0.8107340204550147, 1.6444464280137094], [-0.11135171100607494, 0.19694069954235344, -0.5677085307862497, 0.14748057402584197, 0.6415003148953361, 1.232824530162898, -0.9262197384015695, 0.07440360033717597, -0.4115717382959494, 0.36196003399426885, -0.2301196940942335, 0.14753130493601094, -0.23961129056521438, -0.6458464608626348, 0.059839533735119486, 0.18904593646317658, -0.6596350001406447, 0.18413385718797998, 0.003319463885715632, -0.6155076858718237, -0.17492114748492, -0.23067763675142602, -0.5470611155269879, -0.22077902373971295, -0.2863345192124156, 0.09492994217198392, 0.2163105042040733, -0.6317449985744373, 0.8112488483125918, 0.4550018663432191, -0.1073721347626709, -0.38522294718493305, 1.3381599100724846, 1.3510122505026632, -0.1893117839805083, 0.2009474014910995, 0.2606396273549129, -0.23623233519501785, -0.313920039998992, -0.21051349817125023, 0.4973592921788404, -0.18139665098763716, 0.1582630315273836, 0.30914783908215926, -0.009140000177881549, 1.2116708793428117, -0.1672378280448796, -0.18722939240529887, -0.08129544410711989, -0.5412792112393391, 0.7028978451088861, -0.7913677070751901, 0.8629958454019049, -0.20372949141225377, -0.04858395955347258, 0.06257003783581773, 0.15065771447127024, 0.0540496836077613, -0.20120561113406485, 0.15602686462192042, -0.2575191787798979, -0.280513345041378, -0.02850202792866616, -0.3352868070904158], [-0.15798466351976076, -0.2635299805405219, 0.06966414964673376, 0.34715372632184405, 0.5119275879119408, 0.213153465639098, -0.20245116426129176, -0.017998147232481075, -0.4422395525879061, -0.17299792093245098, 0.126242108111181, -0.1045879156240464, -0.12459185092857264, -1.071886942650613, 0.0624078308088686, -0.2481650794162961, -0.33699091120075725, -0.211968924754096, -0.08634588585740596, -0.5614833266483177, -0.10980364940864405, 0.11475606247017353, -0.34599202296142956, -0.03875438739724553, -0.3545375464330935, 0.19885997431116145, 0.2553176623692356, -0.20010100261587582, 0.6803213623943006, 0.14733434228259099, 0.14292008094211378, -0.3196103762947129, 0.733475094689446, 1.0831586361518821, -0.06741050568056856, 0.45557903774917763, 0.23428728671623217, -0.007679092595950891, -0.010367114983369303, 0.015513159787683254, -0.0022906282451550914, -0.10939237017403977, -0.04535210379345635, 0.017067196030496626, -0.020107477171594067, 0.7702235591991204, 0.0462102240959572, -0.5881561912983723, 0.15694340894360506, -0.23495768756551155, 0.43797729299497945, -0.9943344294885754, 0.48145493000947964, -0.40498414851656844, 0.1319313685032803, 0.12523383173336833, -0.012928389923969044, 0.13386159275188741, -0.048062293735735825, 0.2494592083056142, 0.236584406548103, 0.24638908168077756, 0.28824887268181476, -0.33954370220269253], [0.8295165072270465, -0.3184304435080879, 0.14575554647286532, -0.11073806875603971, 0.039409592440583015, -0.0018504572649252736, 1.1081297303960032, -0.038369518680876104, 1.6575075061297062, -0.12742985740920104, 0.08643072062948037, 0.28355341210416674, -0.13870089421123816, 2.115513762585062, 0.45846401816301074, -0.24719694246775134, 0.9207638519562708, 0.7134101352949784, 0.07250523871114394, 2.6717965420975505, 0.37636793084013925, 0.030453880739836094, 1.3886370409551876, 0.5725766422227843, 0.3799932040667447, -0.08850680459483186, 1.6494706805146788, 1.7233002926167695, -0.42487576610966077, 0.509918003172145, 0.7217211770591895, 1.9633557119471845, 0.48989666260509485, 0.6599486212857987, 0.6423330657218572, -0.344505958216643, -0.9591951535178135, -0.04634447142573374, 0.006078977917025195, -0.20394900151095266, 0.2200882376357738, 0.2630125854404013, -0.13130540141913366, -0.015139096247220377, -0.13754053974503186, 0.609986144025121, -0.15515628913283758, 0.47994085268896397, 0.004761948368551626, 1.1839311298688524, -0.4997094121913885, 2.9119978374116218, 0.029300951043022203, 1.09932036224918, 0.013978415294986418, -0.11183743733675817, 0.7574274857787743, 0.6326161280565622, 3.0684848592612672, -0.4746485162817444, 0.7709039809392858, 0.05284817078814617, 0.377010424857796, 2.025125059580328], [0.7648931786301107, 0.3215713985149176, 0.07891369824334979, -0.7038118057715128, -0.015809324894445836, 0.1958602701990406, -0.03978675157187282, -0.04158636100166132, 1.9283201486580384, 0.1355818652398, -0.04154831832711126, 0.06211778282703974, -0.0947573728396618, 1.4070016230882278, -0.08423265944674692, 0.090837250732418, -0.29297036521467973, 1.1709895859786297, -0.08158476688635251, 4.2224583397819, 0.9490504730118052, -0.039744930243901674, -0.18147808094597515, 0.1377856102953881, 0.704767425927854, 0.07090288466257612, 2.542431840886751, 1.7514414565772038, 0.11145476732544021, 0.48077506224019384, 0.41574416118190427, 1.4796986311788147, 0.17459316467225217, 0.6572238776490331, 0.3209241489660144, -0.0065832072508113125, -0.4453073028148083, -0.007355235531148357, 0.36336791519632294, 0.1499822126617343, -0.026032259851831326, 0.019284361857210025, -0.012610075075940702, -0.04993560157827245, 0.08577678027191445, 0.18085832637049185, -0.13315955803611812, 0.43303085180261586, -0.09481409479011906, 0.26220243425754847, -0.28169082456646805, 2.1282136884266736, -0.10931246474092314, 0.9791751918342999, 0.10188631210809936, -0.4167729160762222, 1.602261163412143, -0.1521102447939753, 4.044912971811508, -0.16539707046876748, 0.603175345920783, 0.005072426900444098, 0.90791877323571, 1.6124697093510747], [0.5212766408659739, 0.17688436726006918, -0.14912701520006022, -0.28708496543112083, -0.5600642903230466, 0.12955374293869773, 0.15860177329466227, -0.22556336318812567, 0.6928176470191892, 0.155439434703997, 0.04203890777421958, -0.12110615637464792, -0.05412263877954114, 0.7754966407827026, -0.20965526434681991, 0.007257800369654287, -0.37618393779984066, 0.13846968443672159, 0.27728024614565233, 1.2336129798606803, -0.7549450519996457, 0.07088452835247622, -0.2567218922642712, -0.7322909236819891, -0.32495622104000926, -0.08460493698638002, -0.21917168030941306, -0.20351144701894475, -0.1909110410104671, -0.6915284675719305, -0.26893020227561165, 0.12472140107665403, -0.20496968930216636, -0.37676072477303035, -0.23646537331361764, 0.057201081503457415, 0.2929754508932431, 0.42282747335622445, 0.0680102997044486, -0.16610862692447181, -0.3635181652746448, 0.41530835441226543, 0.13801918299067234, -0.026356766946054076, 0.009401297088079422, -0.1348003463613172, -0.26199601582724547, 0.15699087866051228, -0.09483674821424215, -0.5523176891906625, 0.17808702227480236, 0.8444685462450544, 0.12313577734333529, 0.879435167039447, -0.3077115583530518, -0.08653930737417172, -0.48237298419255914, -0.3688499436437542, 0.46288784948557066, -0.07972620841693753, -0.4996162060197947, -0.11872012147475688, -0.7656627994751597, 0.8084244306321712], [0.04254294743558379, -0.29111539807641473, 0.09329018493898461, -0.32779450466617743, 0.4000349628801014, -0.08218178573450378, 0.5488685389006397, 0.13110022705361973, 1.251613738738929, -0.10877851137098138, 0.04088640740228487, 0.43965158128176063, 0.12220130714970785, 1.5723484257971452, 0.10897642824365314, -0.27243457693073786, 0.45541456420969206, 0.6191051702142255, -0.11878972370797705, 2.536454717906809, 0.2628197924094974, 0.30107060637334676, 0.6452410978022679, 1.0646811445995605, 0.4098382497575775, 0.34165984107140657, 1.4751361303142405, 1.3709243453938864, -0.323573420864093, 0.7996361524857961, 0.7561398824538027, 1.922691108473439, 0.5686689764458053, 0.4704314368800655, 0.34577430638425777, -0.039673049535641144, -0.6354405757194221, 0.020481482062649343, 0.2629977914478228, -0.06374317613309162, 0.37603856208855285, 0.331786927496589, -0.1754128356861005, 0.5415757372261322, 0.02634947983469914, 0.4707798057140688, -0.2576175211012919, 0.36844796019499443, 0.1367054600521016, 0.6567322225165575, 0.1590594076085944, 1.5278214880095216, 0.5417026676333174, 0.8085883431107309, 0.09573924094791925, -0.11302628007566498, 0.6304010805695874, 0.29422561033380074, 2.497660049229895, 0.09188977333186471, 0.7318741730627524, -0.20075427551628972, 0.5331727881610685, 1.1329748483391646], [0.32123326102618793, -0.1539164280777163, -0.27971965891719364, -0.15426667236631106, -0.2621145055888161, 0.46371358773588356, -0.5372086006437262, 0.1540536913843582, 1.4215861245877675, 0.05773905165839675, 0.08219204367997508, -0.10284810251160503, -0.23730851229995775, 1.027041420778302, -0.1804987962544201, -0.046001191458363996, -0.530086723337485, 0.6055041244591016, -0.17189831958245705, 2.4861069767705417, -0.4539589023974738, -0.17976262305438995, -0.4752163909812143, -0.4052930190317045, 0.1976387987998182, -0.3135544092316506, 0.28850132992441935, -0.13912959784755752, 0.3898727566398014, -0.5426859233121158, -0.4756594578762401, 0.5671947890996618, -0.0030359980675048266, -0.2567650018754535, -0.2839111923394576, 0.21136581759663037, -0.03820141334646112, -0.20048734021743694, -0.23912999813149569, 0.00320176652975672, -0.33855897035940424, 0.17977811321462386, 0.17136106871285375, 0.24592793876836966, 0.07101147430413196, -0.555762896463191, 0.27141122060485956, 0.014742295701746799, -0.24569292752094662, -0.41427776660320165, 0.4598744898020297, 1.0727783551333994, 0.20794157013657846, 0.666554329860959, -0.05791337581687026, 0.06339286747570608, -0.03492001146350021, -0.03880992293570932, 1.2688063625626145, 0.14201327659901802, -0.8759311896070189, 0.02340002146176773, 0.06834101678829035, 0.72017857238352], [0.06755829805891699, -0.2060944755225967, 0.18651254733848266, 0.2835175672190018, 0.25273225924884074, -0.11356067050362262, 0.6234709052760407, 0.1536351046021012, 0.756482417611301, -0.051154379935092836, 0.2266393377508001, 0.03390415125205724, 0.08223118906560573, 0.46169564803186114, 0.10720474774223983, -0.2213971103459012, 0.31378025157920375, -0.16149679711517523, -0.2655936553038064, 1.2697158003138398, -0.0773768110148133, 0.10587226741314108, 0.5930942540888783, 0.273714555912697, -0.3599134185612868, 0.19650733880245572, 0.3276357485841079, 0.49585702018435357, 0.4729974306116488, -0.3820062445159737, 0.4031561165117602, -0.031643529836948486, -0.15499656883033064, -0.7582286753504144, 0.15658131293173258, -0.012686684434666017, 0.2714212772187387, -0.11621164063062545, 0.270035205108645, -0.13151887765823664, 0.10234510945761933, -0.22879869262386474, -0.2753935581082046, 0.14407325218895617, -0.10780725044777915, -0.497151340010731, -0.05696472626365392, 0.06875017561598176, -0.05481637900358143, 0.825355039489814, 0.4085359371373125, 0.6916334201457193, 0.21657581466981862, 0.26722050724448393, -0.057532740733811746, 0.04904786439477625, -0.7668876868296747, -0.19035783548627289, 0.7494754313267307, 0.02199673096818885, 0.024398675975082256, 0.03965674547312385, -0.06749893363222804, 0.7879253446476043], [-0.2415524494866589, -0.10920144402219359, -0.08637414730465205, 0.10068152126448814, 0.033491301435472284, -0.41074455076546673, 0.006172818523943849, -0.026017021588181543, 0.36246837600249765, 0.03532067347233334, 0.5924888440161947, -0.5850855068571649, 0.013809990205050459, -0.4182153127143361, -0.02823653446028488, -0.14384868837741166, 0.38943628478455194, -0.42096842169480964, -0.19216820250096892, 0.1016805165281147, 0.023299775232336527, 0.6514447100708093, 0.3047026595811527, 0.006742274692745031, -0.1617944511307364, 0.3448309924119359, 0.0254531500887696, -0.3753134321680165, 0.06501024534019766, -0.08696596848501978, -0.11888071221534048, -0.1411448651724905, 0.23671925452842352, 0.0622046114180765, 0.10292599728212391, 0.5062716046510386, -0.2631934118680275, -0.32957592530263796, -0.014885965396222134, -0.04621966491857707, -0.5843893898920306, 0.023796000785478916, 0.0876216828750606, -0.05614095125942533, -0.153357386906028, -0.05312032824728886, -0.003442985172031475, -0.5307137802237264, -0.1525503170788357, -0.1557617780303088, -0.17500727852945352, -0.6469068075678384, 0.1317788319743084, -0.2180020441390521, -0.09598545106951205, 0.08159786714821701, -0.25419651177057095, 0.019882438577498156, 0.08983248289516932, -0.11036238062488526, -0.026921846013087683, -0.19985696523998575, -0.10962403191722944, 0.1040294919612173], [-0.09537098831790589, -0.010847572318650916, -0.09996771386218586, 0.061339330670852205, 0.11929016747455387, 0.008476565801525683, -0.3165497049660875, -0.31563322123610676, 0.47451462604966665, 0.00016892264016987922, 0.4932185780121668, -0.2774233572216892, -0.029484499644997025, -0.5256400725169142, 0.34004662228301563, 0.044640767049590406, -0.088908906701753, -0.7584643978528586, 0.3489100754032979, -0.08826704439118063, 0.14491756622270088, 0.2789191289035979, -0.023361638029328596, 0.08448735614357984, -0.29190880833464905, -0.05522402879483385, 0.025236608757316342, -0.034773706841728605, 0.22809123407729734, 0.07355725350640709, 0.2555771764724101, -0.645300133877005, -0.05784283242996011, 0.38748459718777056, -0.28700484140075144, 0.3692829771245739, 0.3796422394851972, 0.23655258727000836, -0.17794262621526635, 0.04636242226779064, 0.010823436214478583, 0.14027857410249242, -0.08235710603136655, 0.32644106698246117, 0.15186881430412077, 0.16592847658508372, 0.21274369178035474, -0.12203320522919633, -0.19930351477796085, -0.05535712696793838, -0.45717395206039374, -0.36938517302268636, 0.13270594090370524, -0.21206091895999496, 0.21283934090995765, -0.08041160893427407, -0.0942381965500685, -0.07097299718631989, -0.23883163006821542, 0.12976078999802698, -0.4992036711637716, -0.10482441296837194, 0.29850256276754633, 0.025018391264808783], [0.26757452239101454, 0.140571296980806, -0.2728490738584323, -0.025648543025473754, 0.7014073402730391, 0.6755937865627317, 0.21524912400231466, 0.018625464897712593, 1.2839271048987535, -0.1424851593755738, -0.07781226122606037, -0.0657462055278852, 0.0904826603723841, 1.544684558369872, 0.0741883110988214, 0.01768846802387393, -0.28655329267757834, 0.4461478146354349, -0.20217443319167824, 2.4711882571214656, 0.2479327253967684, 0.19689893405619957, 0.15126800159091994, 0.06340873705447486, -0.15371101123566236, -0.20506846141030782, 1.319191646560488, 1.0487064382368718, 0.2538094688562759, 0.28884413185677554, 0.15991622446438566, 0.9825469678342978, -0.20545662958460126, -0.18040282134100474, -0.010692343660166423, 0.1803397185829645, 0.20974693527744007, 0.3024252883743476, 0.05880936746121165, 0.34141495613603484, 0.4146087006454778, 0.3581024305396007, 0.03723786552141892, 0.13671773282792485, -0.09048618851385692, -0.38174208705872253, 0.2644584964673202, 0.016059723741264204, -0.07417396856146713, 0.15325181079788225, 0.05191495898479213, 1.994491153275481, -0.056871562563065706, 0.8884519904076218, -0.11778935556001252, 0.21833774611976994, 0.1179763489830567, 0.13713435619427197, 3.007070053967415, 0.19790681965920742, 0.35600536956793594, 0.10477281525967796, -0.2429677016309605, 1.3478379746253288], [1.1338822525353789, -0.1577719207300747, 0.19870371276617635, -0.3267380832519076, -0.610611516881249, -0.35780483187921625, 0.1329486895929464, 0.10150984168331137, 1.6409263852447853, -0.11745069590605452, -0.3287415538548202, 0.04870838459196773, -0.3493159931678006, 2.16112557884801, -0.26498849178729766, 0.1999019555021158, 0.21151600582047958, 0.4203672342586911, 0.0006671298903529147, 3.9006664591801288, -0.519982759841084, -0.07457084333631087, 0.5168347848861156, -0.23588238946205814, -0.5466607540105366, -0.31585420671294934, 1.5433501729615016, 1.8393836308795217, -0.0570542943363407, -0.33705378921703866, -0.8033346311031094, 1.1075665010152307, -0.06679281110367026, -0.2736597832312923, 0.22910652581615668, 0.11315996099515346, -0.01626055531718881, -0.1356359097335474, 0.31419746294197726, -0.04821890130268311, -0.22481544713920573, -0.3815983953885883, 0.19852116061428957, 0.08466935442458277, -0.14073542581051177, -0.490321143761361, 0.05430649833791266, 0.022013255447922174, 0.14276845295449403, 0.43862184242517066, 0.25102280021370543, 3.239224033763392, -0.40620428307501705, 0.864439466012307, -0.02301553603161067, 0.007418010654287916, -0.6909735738849078, 0.014703521393418984, 3.570144002820153, -0.3711315476999157, -0.4876421571760199, 0.04365047393850602, -0.22495463335789814, 2.1581410178431244], [-0.02415078122359175, 0.33647765043411326, 0.236010689417341, 0.1403941703803061, 0.19515915437893877, -0.16179040853947219, 0.38595354328685394, 0.33242059733466345, 0.27912856782019246, 0.15182796442596722, 0.1680540054456346, 0.03776134806225247, -0.21362021632255052, -0.40517826063835627, -0.22405737158953876, 0.04973727890613725, 0.1814726264060771, 0.199920896150784, 0.16203841362981827, -0.04044125404023305, 0.11576411858617677, 0.3906220748118635, 0.2949219086200794, 0.07587214332723279, 0.012349459587199092, 0.12598595444123525, -0.11555364070920693, -0.4052364636254456, -0.13957228359405224, -0.11341157744812752, 0.4139725649955807, 0.005721554084522007, -0.15498958290139592, -0.4293892043080652, 0.09237693071217762, -0.0030186436300110907, 0.3474546809728919, 0.06782785369415271, 0.2123680816648561, -0.0017514672457629977, 0.07980296728260663, -0.05714832049635497, -0.05685809694835579, -0.18752428169966573, -0.4257666667038741, -0.1539089384889018, 0.2685906540880552, 0.09810677370450338, -0.008790004380306785, 0.20430771370214684, 0.43797114068239223, -0.36795364000667913, 0.4588260576369125, -0.06741852235099814, -0.1325771347281849, -0.1718213916971326, -0.4036891413498969, -0.20541920403295244, 0.20005737598752693, 0.14444797136637433, -0.7787278694372124, 0.18816573784274745, -0.04235331031966345, 0.3486524609137255], [0.33723621914119933, 0.52297430736096, 0.1892584710293997, 0.2574673805679852, -0.17355650436723133, 0.35050865749076604, -0.40943333482354677, 0.015893784036608818, 0.7827666381728119, -0.07741720555129727, 0.10837745927155705, -0.2593247420173044, 0.1451791800650289, 0.27056659812805656, -0.024485902357513557, 0.016459695054224954, 0.02214373941714851, 0.25136569344911475, -0.12628689518881023, 1.4710821004633083, -0.5540259790226231, 0.053746953063759394, -0.04346663479402575, -0.04691757692552081, -0.6098077326885807, 0.08294471157195878, 0.8539573576546259, 0.31384855539365897, 0.33037712244090245, -0.24222214858529414, -0.11981265557113818, 0.35576695901601946, 0.30138018396112454, 0.719807179454833, -0.2649386955159795, -0.0827598654090188, 0.4689932349598507, -0.02159940449912896, -0.27977316192491397, -0.1409981265754746, 0.37787097175543966, 0.0072645280381815214, 0.2394180946857501, -0.13064495184076344, 0.05002846898150413, 0.48444185785629146, -0.04434525801158931, -0.44266819603540064, 0.2836720792167196, 0.223159774385774, 0.4213247766298484, 0.9455389437433414, 0.08370146385419287, 0.41343743777336556, -0.023281535647083025, -0.14244553992988807, -0.7104137260993121, -0.3363657648277339, 2.0115136075259272, 0.26637952088027167, -0.4582506742725044, -0.05316098402540947, -0.20997603697558406, 0.8480955604425966], [-0.052701723399582484, 0.051792491748061116, -0.09293407913515592, 0.024678546482985172, -0.7263785728124033, 0.15397411946265832, -0.01560384270173147, 0.07580316167752248, 0.7004871650065274, -0.043690255005078386, -0.06434429058470699, -0.6014946802960538, 0.05243912512904133, -0.09708204668327051, -0.32523213709595505, 0.20592912114815926, 0.5717378956155615, -0.5322811193487428, 0.17787991398256942, 1.0424261025964106, 0.27847963972542245, 0.3181849851558237, 0.15124391392374822, 0.10258512915138365, -0.037311364682646904, 0.1984807318371477, -0.052764326985840763, 0.03182808455618095, -0.1798548585152753, -0.830446049015107, -0.3827974813123715, -0.2903916297033346, 0.1207466429393393, 0.1694015462442844, -0.06690528630958847, 0.3514710527713696, -0.008793261150489876, 0.014496265197039775, -0.48228599098772895, 0.016980701369969663, 0.01057021164130614, -0.10779883258730101, 0.1375694170878303, 0.3741303941047313, 0.20313075534335437, -0.24844939272124486, -0.41842495017770037, -0.29224969366979686, 0.06696754052614265, -0.10446602822553354, 0.027796670062389648, 0.29217094908299807, -0.397577488606943, 0.15675975312505497, -0.09402324497754154, -0.010068488727871699, -0.14582692361483143, -0.01810640149046014, 0.6227558659209247, 0.25840113323089137, -0.1585656263755549, -0.0049626298219232435, 0.2929853669349832, 0.10014379792311623], [0.9233385132409738, -0.35975056221380397, 0.2946852373745704, 0.20142652374391432, 0.6496908108939135, 0.06758141275070575, 1.145277350793056, 0.0021960022147551523, 1.6242146861688425, 0.13421151418394323, -0.08794990827101434, 0.5056631969794211, -0.028991795006279138, 1.9041442322042454, -0.23177213575713004, -0.04179459606757517, 1.2569302876609816, 0.46309885428133746, -0.15833685511274176, 4.2412165146937495, 0.09898184067416725, -0.2993271496094419, 1.2283070838460057, 0.25840743375443115, 0.31619774550309193, 0.3858325105619624, 1.43387541651675, 2.0846751768356415, -0.3656353028040786, 0.9682722282315568, 0.04439600365964072, 1.4290711632305781, 0.04151622031615443, -0.8848237232064166, 0.4288257400220385, -0.22816564903531283, 0.021569452885267085, -0.3378164425425563, 0.04463095740118651, -0.1417465064739829, -0.20234112338916543, 0.2961420478702563, -0.1040843049150987, -0.09606252828790705, 0.10051648145482152, -0.10696848383344659, -0.5895313125532777, 0.6159818257444939, -0.3884495787170075, 1.416489266313671, -0.2556890709451659, 2.8086234856654255, -0.18581369609025847, 1.138793615678166, 0.19712904074431153, 0.22641830608180133, 0.1454500567744191, -0.23957441270128388, 4.037526190011834, 0.023628363760907472, 0.08731582430795874, -0.3608718574546246, -0.5988235611718051, 2.4505582938484434], [0.16707193012267713, 0.01719320275910002, 0.3396517462152177, 0.11066880615841468, -0.19018264061384274, 0.1220625310633076, 0.06137430899054303, 0.11767087259568561, 0.28553324334347013, -0.17758333782065971, 0.04264560514127995, -0.3176672169626987, 0.2999776846175328, 0.26342924613716723, -0.28495645261505964, -0.1745226566727974, 0.3700990720737843, -0.42882728094379274, -0.038428813935945466, 0.49679239763824634, -0.24956794787233336, -0.19276873961351515, 0.37364071276874694, -0.12750509299738896, -0.24310672025193947, -0.0160945455105023, 0.22301621319176856, 0.18518786237831353, 0.18948531359428447, -0.39870485935643846, 0.019646501138508448, 0.03264931959955421, -0.4515261972298023, -0.5893595658880625, 0.08974304559296252, -0.2357841873393219, -0.08999167126797489, 0.04359672620151186, -0.17710040630353, -0.17564466084045768, -0.5117553951334269, -0.4162099808579842, 0.22598333586932443, -0.2286888225823918, 0.09070905206533629, -0.7241516692849134, 0.22797009835289309, -0.14031649707251523, -0.048094048212516484, 0.1535599575931608, -0.20069878000509242, 0.17739221057803156, -0.3391057105066089, 0.08605997785989912, 0.17877346726118473, 0.13555779103716675, -0.3136757929291451, -0.6217583632844629, 0.5524545081996509, 0.2626373561717005, -0.33288217637650275, -0.14043259437019864, -0.30582985934949414, 0.4865364105248493], [0.6179398855378214, -0.3782190074393842, -0.7099739440140282, 0.3778851775285484, 0.05706443506768145, -0.48417538153933615, 0.2997254961754646, 0.07516320940765167, 1.864205446817523, 0.05300902746086795, 0.47397142029526057, -0.17885963013082834, -0.00034754091569792793, 1.2418833200185542, 0.05779855473338071, 0.04014833340811286, 0.16348991122568504, 0.18297731425489108, -0.06614516978884756, 2.7951078351206102, -0.09081263690157867, -0.12299192653702716, 0.4435048982965135, -0.7108312656741315, 0.11232536880459443, 0.24889236600192804, 1.0558060876234472, 1.5346074442274324, -0.9917756752441327, -0.16192079565314604, -0.0043533424004934705, 1.209001424231684, -0.08978886050932766, -0.07387962895601435, -0.04517450191370787, -0.10026363992797768, -0.1801372733916667, -0.06929455519735807, -0.3014716941000314, -0.17759675702978772, -0.42947620248985446, 0.01021182116345103, -0.24163778951342169, -0.4403355660954021, 0.1150279769515447, 0.12737070051791946, 0.17016382964651788, 0.3476291776951347, -0.2604876747230573, 0.7405107164014331, -0.5707429113882735, 1.9124391131414857, -0.49337541489164577, 0.3992121452082432, 0.36002029871192703, -0.07500550837472031, -0.08758021207492445, -0.13505438025119826, 3.203193130207532, -0.1520573741784895, -0.1681631417091165, 0.07789436917380603, -0.1318827538030044, 1.6970141625784676], [0.7288285509520753, -0.3566879046363812, 0.34838208538037746, 0.10397546458757219, -0.40043494845841665, -0.1536026470462982, -0.06263899748910047, -0.13300539464037323, 1.0401036162499355, 0.2756153559928583, -0.027568402397762988, 0.4173673559048016, 0.16752749550615148, 1.121299172046068, -0.2033415631438152, -0.18511191960316917, 0.3641375965402378, 0.10345312025448505, -0.23675178048037582, 1.9033584997247364, -0.5749475222433856, 0.40009134439327526, 0.8484013434887049, -0.3177171753792735, -0.3670316902982611, 0.02867667066928635, 0.4099893423397085, 1.1273359464318775, 0.11425604708202945, -0.6724216394680885, -0.4552106608281243, 0.6592478517059057, -0.2080989446793484, -0.2932422184844777, -0.5843173231440792, 0.06294067454933372, 0.45270131287496, -0.0262762096137668, 0.030632999260518344, 0.014234916997657708, 0.042010115729040794, -0.47475875636099435, -0.19763782817856176, -0.06387645422797841, -0.4817798210944722, -0.6373021139713023, -0.14382538748135415, 0.17029580653789667, -0.11406486055245388, 0.3096241640203477, 0.40371114834689387, 1.415351036913412, -0.6240148792512933, 0.6947390114088382, -0.2559208182194664, -0.27826809061179303, -0.5925879902819169, 0.07777141391918094, 2.340607813962813, -0.10282585023721327, -0.46410355844961887, -0.3793514073202526, -0.24969917074535947, 1.4829933273280047], [0.5125419511541177, 0.025035909837449247, -0.44536272910657004, -0.1695769905004281, 0.22574168732994046, 0.14093892291875515, 0.5145011387196277, -0.15663610696666266, 1.2868954007758404, 0.09965698293190497, -0.07378958056318208, -0.2171628495738082, -0.08159734354081548, 1.3711962702648142, 0.2325113030555776, -0.05772406163825599, 0.3188652596904019, 0.2522317268449633, 0.04859467767543061, 2.756377005595624, -0.553596918349674, 0.2087686272135717, 0.7440674514920018, -0.1765253338762275, -0.2011863869826566, 0.03766453012978327, 0.10703842975133313, 0.9620135285784489, 0.024472205798491724, -0.2510007818626375, -0.3790748832281267, 0.6002934714933943, 0.3146484095380415, -0.1584212048716347, -0.1739846049339715, 0.3358737901991937, -0.4915986038459779, 0.1254409235424717, -0.307104931608044, -0.16164554501843315, 0.2411964082347454, 0.14781791242451695, -0.11902329905522811, -0.17059761550065328, 0.021641788539093938, 0.018099939052985556, 0.22125006717205198, 0.3074364747565377, -0.2751990354498488, 0.37382555946883733, -0.18923964739764587, 1.3984449284243576, 0.1006368426010421, 0.6771147974237672, 0.0541842149278107, -0.1578969732284182, 0.0069056212392796645, -0.23065160304962704, 1.4391485516355127, 0.04939096073756901, 0.18198745104912492, 0.13616037307414422, -0.27287671026390004, 1.3553110548161449], [0.8450941239732368, 0.025196630175305077, -0.01926302548847325, 0.4355004908936581, 0.33303318875609006, 0.11881610833860792, -0.4577011054288935, -0.09256503544920289, 0.9484564221863838, -0.032816255102707914, 0.17785581164359132, -0.08200747026317591, 0.028828150739357166, 0.19729622708080394, -0.01017732222533648, -0.04057045396568806, -0.49523585845584484, 0.0119744655535132, 0.12151157019808069, 1.8062788757123895, -0.005222861674126389, -0.03448841126925574, -0.204926190172095, -0.9279234725130069, -0.1580365910742695, -0.0648996976332128, 1.1924852452447, 0.22559260963062355, 0.2630401459747805, -0.10238444310608551, -0.2610801404525819, 0.3817228605364742, -0.11012680406792515, -0.2341070218257022, -0.26971982162989616, 0.045288170193934926, 0.16253122658278923, 0.04574662382555358, 0.001234373759913019, -0.12994610531283346, -0.17214895228144395, -0.058818741689723654, 0.1114794407306448, -0.14843971926137936, 0.03330648010128423, 0.2903528266848367, -0.0234131398579798, 0.256840781852278, 0.020499175165179722, -0.23174610895647993, -0.09248358623501655, 0.5641551529210669, 0.08795821761468782, 0.16226151507056738, -0.259038030470108, 0.1069824157734647, 0.04065909465340269, 0.22537853921639292, 1.6823896832657592, -0.0188719743053636, -0.22603411669917778, 0.14540089273942647, -0.11420398087136861, 0.5211968879120443], [0.6838201181886387, 0.44806402346544505, -0.3649860453257956, -0.05413781288608315, 0.4036157184395146, 0.653291587638964, 0.16605753809769347, 0.20465032480768122, 1.6226443716062169, -0.11124626974316576, -0.2504247330096426, 0.1290305770813675, -0.09443508866157783, 2.023684744216236, 0.05184031235147699, 0.1692410821320379, -0.11186285098321117, 0.4423913885192427, -0.3676419690913248, 3.1540821298226493, 0.4492658635539876, -0.2100746543592674, 0.22681072681660286, -0.14403758359346722, 0.6294370907732327, -0.11460313300252781, 1.8196297609150718, 1.3468320738405348, 0.7856542895502265, 0.19928803727717148, 0.4196178805132843, 1.419238040105886, 0.6595947957197345, 0.4086749293194713, 0.0839810317217464, 0.47341186016570835, 0.07214192657559942, -0.05411123918537457, 0.18056504897659068, 0.10821368830695968, 0.29204483196270864, -0.1311912608657286, 0.08734881490723383, -0.5990329804797029, -0.0830806348620427, 0.29406538387053627, -0.024065645474106025, 0.6142376472796306, 0.16489282383754036, 0.27348970186193755, -0.279130072993364, 3.075281589285439, 0.3412770535394245, 1.0509371325673136, -0.141400260681124, -0.3667652006723677, 0.16813286868039942, -0.06906538915110941, 3.2544290009529235, 0.49731127991350776, 0.10016039460078813, 0.20067047118846212, 0.7406604845414746, 2.0290002709219546], [-0.11097885268656614, -0.14696774160295242, 0.05495388633199646, 0.2748093089229423, 0.10111833963837223, 0.026561612694214618, 0.24793325907209465, 0.24697388155613825, 0.38940435233737347, -0.4054659924420863, -0.17845346393400507, -0.08418894710229465, -0.3184987112809074, 0.11010636992517477, -0.38623952427514907, -0.0452841623538066, 0.06533334252467343, -0.2160368221633406, 0.14589513550121483, 0.6072053399017958, -0.35831757223050115, -0.2367101369105184, 0.32050900563025114, -0.30117063084889223, -0.41975790675285113, 0.03867074730510253, -0.4605280160652226, 0.041703369304001356, -0.05638501606454571, -0.3559852516412994, 0.06635034326137597, 0.028772218656315927, -0.09416217162160588, -0.7679345072440256, -0.20181345167035616, -0.278017258121774, -0.14976830984464504, 0.07345743332069958, -0.13234275246301147, 0.06092264170770113, -0.29768383020224665, -0.14070500503152636, 0.180106054467492, 0.23999617354645247, 0.02387470117261906, -0.0985557155821418, 0.06069987569969431, 0.22014091661899632, -0.22471182219813346, 0.015466968538280125, -0.030291879080128734, 0.42583343721035144, -0.43310818084672364, -0.321748418759509, -0.08808153869015825, 0.18058223771238036, -0.725781484530372, -0.5183581674932504, 0.1769868006883881, -0.10313457826893378, -0.15306081344786715, -0.21674955349593958, -0.5028025212343997, 0.4089984094061656], [0.427536635650399, 0.4600625715904905, -0.3143601492366059, -0.14776277881831837, -0.41509129227472913, 0.004292060738394813, -0.7300808491642619, 0.0963298277889878, 1.2145705503888489, 0.19601923231826746, 0.07519512802243183, -0.4963717846756732, -0.16998481803373805, 0.6281338868694002, -0.32236995841353117, 0.1950211918355515, -0.5470254138817064, 0.3433448140226893, -0.001962679279536086, 2.589237367146057, -0.24511304155935806, 0.061903849836601625, -1.126448602425843, -0.653299893533654, -0.35500920406008424, -0.24754258666840911, 1.019589644125195, 0.31287609052100224, -0.006648432261366365, -0.7363247716143365, -0.6689947545644024, 0.7554947574585019, -0.2531594617730573, -0.16426408603571485, -0.37997578735696713, 0.4433691683640598, 0.2786435691481846, -0.31020039422683066, -0.0029788578954452172, 0.37379190475407337, -0.07719030057442383, -0.179179411619362, 0.03581802964842775, -0.32601074702570326, 0.34947558493657327, -0.2390685007239125, -0.1171399093210666, -0.12549269374106325, -0.09537526445847849, -0.5322505964356692, 0.1127652413498803, 1.4902296441689356, 0.060636825821770886, 0.7577354375304655, 0.2797701644648292, 0.00605175646527208, -0.3364900034071989, -0.1583639324959109, 1.7989520155658656, -0.3330772226139414, -0.3808286889985186, 0.04373961585294073, -0.2956078071871801, 0.43827450260034784], [0.24182318298885216, -0.013862128592090526, -1.045454012689792, 0.16365010476330227, 0.19587178379633063, -0.31898698988311386, 1.358444282401512, -0.003462644342412372, 2.0754616115905544, -0.27875200535575706, 0.2142884373253616, 0.10834840414136826, -0.348780791629371, 2.0988643762349155, 0.5530126205178629, 0.11589661542381716, 1.3829583104896603, 0.5461049209486284, -0.09444507479048628, 3.467603615258807, 0.994910123976637, -0.32491608372497727, 1.1626688061822152, -0.04088015661881801, 0.4009415647039426, -0.31131550112808587, 1.7839213503633642, 2.320417226744026, -0.20850248481240538, -0.04901267977856315, -0.46511913347052636, 1.396707199844258, -0.4418503524522718, 0.45462282990944947, 0.22604889545345946, -0.09689219479523799, -1.0143263126518702, -0.00016089119511771552, -0.0812949749698559, 0.06659127237461945, -0.05386375468697382, -0.34630266064778253, -0.040685233129924656, 0.1620213801856237, 0.14731761750190475, 0.4690592440158417, -0.05595790332376825, 0.9840185938612546, -0.25000504427981346, 1.5519285894003256, -1.042483029513985, 2.5528798443610268, -0.22354162104839434, 0.8317637182749694, -0.10096954795829297, -0.2542108417739993, 0.06833662624862984, -0.2265998830289206, 3.7677630939102937, 0.042113095213037396, 0.10343698528804315, -0.21518000572005025, -0.4862009504447962, 2.283619125186224], [0.27559152162093264, -0.9189611747050742, -0.26472193767173324, -0.3983716378053082, -0.11433884594313133, -0.39349436482051975, 0.12133545939279843, -0.11743661542933267, 1.0613402249572232, 0.26326690232586036, -0.22773455313882446, -0.2597588063874501, -0.3502390919479163, 0.9501458927550884, -0.09902672967763959, -0.3782362898505933, 0.25878949306559357, 0.40113561968891337, -0.3178583503550991, 2.8257753306569073, -0.926994192901737, -0.09444398066593618, 0.26637723276678776, -0.12782439685460803, -0.41823952652820273, -0.2133608265210153, 0.002048179192752518, 0.48210470415576206, -0.19722273350280722, -0.3342406762367819, -0.2462406147037026, 0.4690161438604326, -0.9419308864882406, -0.27201610157756256, -0.3086817152953401, -0.6166098497309338, -0.24204615947402544, 0.17661573330855285, 0.3360687549175959, -0.06042195918238228, -0.4446196710979075, -0.2731732762772678, -0.29620336452700746, 0.09409421061347265, 0.144326258645228, -0.7537307948630297, -0.40696082125072125, 0.27069860720135785, 0.24598798400087082, 0.1492218361669552, 0.05745611478627314, 1.4165263131028827, 0.014261749490174953, 0.5609630316753923, -0.1943215273162034, 0.12425561749253199, -0.5760775684261232, -0.08259836465390666, 1.233267503863463, -0.5153349368655921, 0.022166949063295808, 0.3114808867724784, -0.5906236222989014, 0.5816842647480532], [0.5075844440807501, 0.05354860684102078, -0.07200419945056943, -0.04861396825105652, -0.059613791370318074, 0.3056416221908662, 0.23211225619793435, -0.028414898375639878, 1.217945405973325, -0.2818495859655163, -0.3512430075632316, -0.12271040957155657, 0.09094151874612474, 1.0014099060076194, 0.24766812423019047, -0.23660949811590276, 0.3156731457664899, 0.6180358254440667, 0.02495490305423013, 2.2330249430775355, -0.2228573680656936, -0.11458671977776512, -0.23556812175169634, -0.0949845991984613, -0.40491764741412245, -0.10376848200099491, 1.208829930936749, 1.046292627128812, 0.43957709310039916, -0.10334065365226756, -0.115571931013742, 1.046974531232794, -0.08033766205120449, -0.23727082919738918, -0.058265095823848014, 0.2494101379240096, 0.24501684884736868, 0.010337382914432851, -0.1200440954660305, -0.1664341460750708, 0.1137766950569577, 0.0530384691399636, 0.2829899826575685, -0.05905769374207903, -0.05440217139868029, -0.19131788482202633, -0.09787179590148955, 0.0027898913335421527, 0.04171223045648141, 0.005496049057792628, 0.259858638080508, 1.87842424582513, 0.007434485151594745, 0.4705268902937253, 0.35729992508859987, -0.09957737448103744, -0.15395723888406126, 0.021175153116363546, 2.448468964183043, 0.04692409457003922, -0.03508964181808899, -0.07683017665135593, -0.4884303851975214, 1.226446174559874], [0.13708976591871416, 0.30284690518990864, 0.14270953091497648, 0.1096294240893367, 0.3109508017458086, 0.19457106877550484, 0.2626003973375642, -0.18467884441673177, 1.4503759387458495, -0.16529126881368703, -0.39359109803029346, 0.16781743567184146, -0.464763596554531, 1.460107850796656, 0.3441282296883, 0.08835282579476099, -0.3847816363410659, 0.07686787128395724, -0.09694499046228308, 2.6527216258384407, 0.005236132809441726, -0.3555741419060764, 0.3030491202447401, 0.3072715432036276, 0.07024011529164204, -0.290562191883168, 1.1993973679777115, 0.8386389846620125, 0.32785155133746724, 0.16264641155848747, 0.20621285051103216, 1.288815582642314, 0.0886476606927213, 0.15023470362177715, -0.013432151454729587, -0.051494521736313845, -0.34106598079094824, 0.061867518622579734, -0.049148527157777545, -0.08756731904591233, 0.24280087255304372, 0.04520283696591384, 0.35604194830387725, -0.015558561101165222, -0.3709418173275467, 0.19714738067174353, -0.05126504441456705, 0.4534147602032669, -0.3046432371209135, -0.036129691689055096, -0.49829849457008224, 1.8536704280775156, -0.23497345108879816, 0.22261526496335737, 0.10453162384852072, -0.2220435059694685, 0.5977597376217344, -0.031158326472510725, 2.22158918940582, 0.4037668381358019, 0.5252508735359863, 0.07152031949999517, 0.5003535601869435, 1.2181994168946246], [-0.18303537012515894, 0.2708391626822382, -0.31537128906777456, 0.2243437128940115, -0.3135218449410441, 0.17494860881508406, 0.4388400316240247, 0.09842287271183957, 0.44895974962271085, 0.08293445174526555, 0.07559490151447418, -0.47554867505383197, 0.3618361408848532, 0.28370176972644534, -0.11775887711089844, 0.04200857800641921, 0.30316029971378, -0.49541813336852736, -0.059473969590465685, 0.8574046730753614, 0.009602989039004245, 0.5809172309154684, 0.5245966370164626, 0.10927646599528922, 0.010162169251066777, -0.17885811164070092, -0.08702729972000332, 0.31382064017430306, 0.0061029956377535825, -0.17073060169235665, -0.18563266918723256, -0.28771483674899057, 0.29448655920137967, -0.06026416748420028, -0.1542365675537395, 0.48577780967889594, 0.2896832700864257, 0.1615313024139918, -0.29907665441142117, -0.056774296738273895, 0.14297824812691035, 0.1329364674209382, 0.08221338127179113, 0.0005613539288886924, 0.0424357678143941, 0.22865868496733371, 0.1333719759533881, -0.34502960742984967, -0.06244100792216619, 0.11416142550343389, -0.022539561532742242, 0.28749190715379513, -0.08990681670200198, 0.025169592428864802, 0.012227607427253429, 0.01935704900518325, -0.2260308947960634, -0.22929310170491937, -0.11888575901922586, 0.40921884366394373, 0.005132673331146035, 0.06360296569995932, 0.421757636449166, -0.05999267390779451], [0.14665518466250374, 0.12638170263324208, 0.05898813482929678, 0.09531784877642199, -0.05847710310664165, -0.17440413735095764, -0.06631389814969268, -0.07910014417222781, 1.226642531211509, -0.12377737740523373, -0.16346186812661023, -0.02169606492357307, -0.011033041301112172, 0.9780946753983756, -0.5191074970420991, -0.1484521823694143, 0.15238520914093331, 0.35775627813257893, 0.14945771902294194, 2.5828229447848927, 0.26774055646414896, -0.13904649831333718, -0.009095406683239833, -0.047412572588534874, 0.30790697506804304, 0.24263955957760688, 1.4392068272408685, 1.176049419234488, -0.10501289902838683, -0.2571848186237315, -0.06770659585935516, 1.1801077873714299, 0.2011284585023468, -0.12621462888376161, -0.049726981870682245, -0.0842406417318837, 0.2409248521019224, -0.1670512107066402, -0.21294230697722347, 0.0812944893040236, 0.09378425984866537, 0.05350060978634312, 0.040838951930597195, -0.4360956341662793, -0.20380979992995676, -0.2968973176633739, -0.041307992290218996, 0.35615425893867314, 0.21201050917063605, 0.09073541396182754, 0.07250951534345872, 1.661463205538632, -0.424089462617987, 0.7970213310291466, -0.04351532025782896, -0.03443550811300689, 0.2837625386824498, 0.020058777763312698, 2.6324646268317355, 0.07563419289595733, -0.061454293061378604, 0.034254639472134765, 0.1988456282395119, 1.3883011021517084], [0.3502549402706177, 0.0831215067228763, -0.11475819984646168, 0.25717559463143785, 0.19272283271099505, 0.15249490765337656, 0.30844389080483703, -0.25179557000801944, 1.1760648728001863, -0.21463137821098047, 0.16136150838828064, -0.4781357707848999, -0.044747825859080756, 1.1014388042066223, 0.11280591978187245, -0.09003660144852936, -0.06618032859944754, 0.3241205024702405, 0.16533371976626862, 2.1205435234222882, -0.13786935863739067, -0.0818226722617902, 0.06545842948378394, -0.4872810575309509, -0.2249095943113457, -0.09206573169617494, 0.8824967284728714, 0.8215535042189978, 0.08952888549117924, -0.6253953816595226, -0.5972445092313939, 0.9773485545667602, -0.12790269264567822, -0.2974560556440686, -0.5094256378512847, -0.002796808281047678, 0.49020956774958024, -0.09067844782542245, -0.13553012099953846, 0.09850020896912559, -0.06963333445441004, -0.5455009466872793, 0.15053334529846685, 0.22011479986405036, -0.4596257907324859, -0.32155189405845463, -0.5035532051947812, 0.1692379064146716, 0.20716886343447558, 0.3813705285923631, 0.4846875929557921, 1.6645186928968017, 0.2822305383492075, 0.834234410414651, -0.07123094406147422, -0.08423064369944375, -0.4899185812392297, -0.13574273371762713, 2.203054318210359, -0.15869307594597096, -0.36163331135171284, -0.059312385211474555, -0.3487085369826522, 1.3535637808610177], [0.48386013701160524, -0.23124155403469368, 0.2874021447566598, 0.42732795889617936, 0.08972791009268993, -0.07832114310331276, 0.052010904496754065, -0.2114667070154527, 1.203252623143466, -0.038798585088732115, -0.04792013242812835, 0.24880326676312542, -0.002434758036432871, 1.057457006050165, 0.2504401200878903, 0.14048014631191738, 0.31647037658852173, 0.026845695318112935, -0.20315158991257135, 2.159937800322555, -0.35072954732160627, -0.03023587877178378, 0.46977635383053346, 0.08152008032109206, -0.14584837189800887, 0.1531949618683282, 0.8998923740761223, 0.7127794312504064, -0.09194679398400052, -0.3492414134464268, 0.07781095555575356, 0.7831928858391651, -0.11941822381931873, -0.38798983089592726, -0.4176253047504376, -0.22356893500164574, 0.426927007930504, 0.1571621730341553, 0.1824137016817054, -0.0700523170105845, -0.20039072186472742, 0.11485055946461196, 0.1585303765220876, 0.09413960969800916, 0.3037148480907979, -0.23247814725217533, -0.04541216241304801, -0.14097237478304828, -0.23737247058785765, 0.5715047343985987, 0.43196308626435875, 1.7452121002727292, 0.28656945942258805, 0.6357866188289161, -0.4133054545291411, 0.0237504237167359, -0.14256735530001782, -0.1866824521184087, 2.302083442599283, 0.05798316011267363, -0.5605725002783141, -0.06480780026713275, 0.27183890796122046, 1.2686489343317062], [0.5635430633862809, -0.18534742513670543, 0.011743734201687898, 0.11573154295699391, 0.23191359184886332, 0.14831887342943317, 0.058431788274150506, -0.07012371048677535, 1.9952331228067612, -0.21916101153517328, -0.15970799939290514, 0.005617539151434068, 0.014842097018519662, 1.462556695423487, -0.036728295248451594, 0.08415321514746624, -0.23937993208894798, 0.5175928692623891, -0.06300613703362186, 3.1196064327422164, 0.01955763842444509, -0.21550348651545517, -0.004072357541111841, -0.22214669051047342, -0.061478611722815574, -0.23313845559506258, 1.6341719425841403, 1.3020675468671712, 0.17406514097840367, -0.010305474098818095, 0.23224984743686047, 1.2377912904139943, 0.07781794582402815, -0.29867891982099704, 0.03855064920855286, 0.4226917602424491, 0.2935928137173627, 0.13543527033517383, -0.39486305884908024, 0.2138149155737895, 0.076723435725703, 0.10122797880471936, 0.22140239395829087, 0.3238834853189108, -0.18868486457845438, 0.24157731396807544, 0.07005146384683159, 0.16437190474148017, 0.003838228448493918, -0.171130143861183, 0.5671982453677544, 2.633553497584009, 0.40323463508020296, 0.8074868388230096, -0.0741103377264024, 0.15598883836639002, 0.4780630896996982, -0.09774014340876816, 2.903470775254017, 0.42116246990812495, -0.030213906491603566, 0.09870132694926638, 0.22415506849546207, 1.7593243114558454], [1.1271960157232197, -0.04340785937642554, -0.26133860378277973, -0.3863661792635264, -0.674037804551887, -0.07065680872695046, 0.6877289143401166, 0.09432405683300195, 2.268117087458094, 0.020523606242592887, -0.0688035778454565, 0.017574066461560976, -0.6306107983734557, 2.357761456172542, -0.2582364069964752, 0.1180956560539129, 0.3511889751034404, 0.6158844767121806, -0.19068208644890336, 4.695063170302684, -0.649775266185649, -0.3726224131568045, 0.9442674626035672, -0.36600742263955804, -0.6072806479071271, -0.4670290266183541, 0.6624439151653817, 1.6712933147285864, -0.018546306961226004, -0.4795087683351373, -1.1879486758000761, 1.355146443187203, -0.4935090719946359, -0.31026522686724584, -0.3505452576278412, -0.045110320401141636, 0.019942062365177086, -0.07792169933518592, 0.0976745954633765, 0.19453477663957533, -0.322393589211268, -0.6284537572144655, 0.08723115051754383, 0.0247673261119635, -0.06494356764847015, -0.4042191268746896, 0.06653292105464484, 0.33869379056984694, 0.12010008394300162, 0.135960558386775, -0.1362234435752745, 3.7077425809256828, -0.2752587372770415, 1.2501644459894092, -0.1664560768324901, 0.07327347939600236, -0.5652079001189951, -0.0401248174674026, 3.296788753750083, -0.2164556431345329, -0.749710900705906, 0.19841903177555328, -0.45415080411911796, 1.9138303684165632], [0.7616763015212188, 0.3434787356385258, 0.26975930441185403, -0.019833063902822422, -0.1926155386338347, 0.4827482435627364, 0.2818582986464199, 0.22077935257342254, 2.027006371943204, -0.15734533501470568, -0.15037023530807891, -0.06500707901025063, 0.17481866802358645, 2.074946179575444, 0.25878741581138104, -0.028126206621418917, 0.1290809190657659, 0.5271952913341288, -0.014926456053398993, 3.235322402677, -0.0919209970065492, -0.05801012020216894, 0.2833164459556372, 0.31978703898296146, -0.02157618022368804, -0.09237852792422273, 1.353440389944085, 1.395131773751038, 0.6100655894058226, 0.03474933325435426, 0.13724721872921586, 1.4097492236878915, -0.2583204528240942, 0.17397896295909773, 0.24701862329781132, 0.04488764560930438, 0.346857102129574, -0.20314883797948094, 0.4018742378078015, -0.17528320440784903, 0.12271791970737536, -0.030995644952212274, 0.17599676807845593, 0.41549826980585663, 0.31177511526726204, -0.19407784858744684, 0.06686737286043133, 0.08362470064318418, -0.062445984260376966, 0.9037364220633329, 0.7245411349358267, 3.098946505081133, 0.2526363240740858, 1.307922836198179, 0.014471177348983582, -0.003718169119033688, 0.2713909249308682, -0.12738868016124605, 3.8176477049578477, 0.30403783980077015, 0.41451824892269334, -0.009308049076512741, 0.27706363545958673, 1.7960910037962692], [0.6497733341291045, -0.3709347736101307, -0.07264417699600453, -0.7777820455624354, -0.21931781974351375, 0.08359762813029004, -0.09438146685332127, 0.26357406274375395, 1.5972511041583677, 0.08821425144222275, -0.3183643245970134, 0.06891847616666848, -0.6000195546033271, 1.6634045936734079, -0.3374222366874905, -0.04632172056845057, -0.03589803142259039, 0.28676045117664983, 0.34031513612175357, 3.341429984603795, -0.22877035595116157, -0.38908095769151335, 0.16346884254796148, -0.13460050611526925, -0.14572066492395014, -0.16997404694965354, 0.4802785080552459, 0.7632106523966812, 0.23450452391044316, -0.5939521368946864, -0.2798704409217049, 0.8939000358818862, -0.5278361565525971, 0.7256081427616736, 0.057602689305356745, -0.6909658187677417, -0.10635417303618477, -0.15205602642822, 0.24589354656002677, 0.21709746353157353, 0.3322519814489977, -0.3263794082927532, -0.41096225512336104, -0.15441750569946697, -0.16928011073609703, 0.189510457183906, 0.10161592629215159, 0.5145896778071037, -0.01093714918792701, 0.2063323548718744, -0.020255960212824893, 1.3856569875149727, 0.16809327231101504, 0.7672312255543096, -0.2381788817133378, 0.06612053473455351, -0.6015283947091117, -0.09207211750383017, 1.9314065689306255, -0.020599484825433327, -0.3305618761133273, -0.3223979351812436, 0.30477838604912133, 0.8361839728339853], [-0.12195424839955037, 0.3559269024473387, 0.2043362778952636, -0.10534843162573013, 0.24537226137446555, 0.49181545430595297, -0.13405730744618038, -0.09802821646367443, 0.027609725515852508, -0.043332726143162914, -0.5725414707727408, -0.2954924382602091, 0.43683907930008287, -0.5021972907156084, -0.42507128554495155, -0.20949140390422144, 0.00463303218601578, -0.06495410384438427, 0.20865268700948789, -0.2932525446281427, -0.030620228598236716, 0.36011087518674995, -0.06852088438989146, -0.00922926564593855, -0.2994287425003796, 0.09724333567642103, 0.051630901671982, -0.2372574850334103, 0.05063601510929566, -0.4993393906558991, 0.06418717544046144, -0.3524897415873291, 0.19212967335395278, 0.5769421472372905, -0.13919107400524766, 0.8170004005283072, 0.6518728132467355, 0.25423317013724095, -0.3532368422071704, -0.09956389229049795, 0.24964394359462885, 0.027708043132298507, 0.5289022788083946, 0.2959697287106812, 0.057143515946716184, -0.29466350459597035, -0.2984029232763688, -0.2793129306020432, 0.2795920191266949, -0.3638377520214727, 0.6520770072026983, -0.5440166066217214, 0.0017714696313370108, -0.16431766397744962, -0.12414978046398432, 0.11239660246893972, -0.35927522066560824, -0.426721594913821, 0.0639490523510444, 0.027506376532980933, -0.4802452087949483, -0.2841560503725105, 0.26419760096628414, -0.09284653844184539], [0.7047577534992135, 0.02329949691889838, 0.4449343086883725, 0.10008536125075389, -0.0033772935899448646, -0.5049601966440836, 0.7440216195955248, 0.0873584455206912, 1.517452108874153, 0.08643512192482267, -0.10088254826929126, 0.018102849884448435, -0.23411572429040214, 1.1651961002853626, -0.13983969821062453, -0.07517195831424517, 0.6572895965443368, -0.12031526569701244, -0.08915061468121996, 2.567105761164458, 0.37645452868225043, -0.012267289645282642, 1.0749847653567184, 0.43290740943660144, 0.3352737214344178, 0.22257395630718838, 1.2902868044666638, 1.4844866605377227, -0.49335769848804845, 0.4084408733445185, 0.3272422388378927, 1.1253685378770908, -0.20483458275694977, 0.1281856375748733, -0.004785304415453772, -0.1198474736276428, 0.0024760032306889255, -0.10393290367062197, 0.4386351981968317, -0.0001933061367955179, -0.4310079837017656, 0.0791364463393553, -0.11520547343061359, 0.21661744197060476, -0.05212836662261395, -0.11280630153788038, -0.19356705508375813, 0.14708705128066002, -0.18648844406633605, 0.9475925181138598, -0.15775195460645353, 2.1528255254733666, 0.2895387857980224, 0.9543910970630775, 0.2308458073325814, 0.11048159228626304, 0.3742692711937891, 0.0033113045180591404, 3.0589530172567065, -0.36675411443523576, 0.2829767423047822, 0.020114661565584592, 0.0755453640121014, 1.5772674519642733], [0.007438237456925793, -0.02241662871652156, 0.06644776437797435, 0.11755747646937215, -0.30796400735156065, -0.22831820847260031, 0.22439096055294586, -0.010597946881410714, -0.07643797373250877, -0.04810940269431786, -0.0453452227863399, 0.06101625697616571, -0.19224482079988162, 0.012806075932996763, 0.024209660750418957, 0.07001256967465819, 0.09188672245616936, 0.12050785224820318, -0.1012393329931921, -0.049962657644509544, 0.4592922896604331, -0.00944485197344811, -0.02868014649463299, 0.17790978959304554, 0.3131156261859204, -0.09827808566042281, -0.08550668133533346, -0.16970473042438056, 0.2410784965138787, -0.16579409606389525, -0.012712138921323897, -0.1622011244970541, -0.2904186056727269, -0.16072759547106108, -0.1329124103931149, -0.14437438572783123, 0.31810309421625305, 0.07511172914001295, 0.1448803740152675, 0.1428363654558004, -0.16100642621573422, -0.05005654616529007, -0.020512393054615656, 0.01945806158320751, -0.10206165601484367, 0.018709396287674554, -0.12486263133961333, -0.026060662863865974, -0.08588744813362818, -0.22781467364692626, -0.42203647878917866, -0.09302259184414566, 0.2813943391706357, -0.04403105097442476, 0.13717308713867538, -0.37598217555604563, -0.15536879912055376, -0.25663904757241607, 0.040450669116709706, 0.38754390980643144, 0.13846116552759363, 0.29963752417919626, -0.08262748513296304, 0.26441045773139993], [0.9179904352308516, -0.07452689629705957, -0.12527687147238845, -0.4356568912137138, 0.052809034302029836, 0.1633769303982621, 0.8101363205057392, -0.24559736589055756, 1.6730497544133003, -0.32093221909051184, -0.1899878794139948, 0.20659208391413647, 0.03580616204528066, 1.7620202400195022, 0.08322407345673304, 0.10229645526893863, 0.16711065621555798, 0.07927356960417674, -0.32732979886236513, 2.781818186492932, -0.11264330828904544, 0.20846596257540323, 0.5172854855727791, -0.0019423895020034372, -0.034493993746068825, -0.0785916436481058, 1.4582796756916399, 1.935576996907862, 0.3135298938411965, 0.12076790703927183, -0.10734356167556533, 1.5232438524784981, -0.05270908637309831, -0.07265697345445547, -0.266252772093036, 0.014204802412350835, 0.2993001178840841, -0.1269602507174497, -0.12326269186494372, -0.2833113924631344, 0.5285379657489715, 0.13844884954635692, 0.13449305702941386, 0.0841199743308781, 0.053497783208106914, 0.1958485348845237, -0.09171175701016641, 0.25700445079370093, 0.2691606876092878, 0.638873886802518, -0.2675946633044607, 2.4506762849393406, -0.3764036545934578, 0.7192200310976272, -0.3563871598238865, -0.371493798632094, 0.21212811400741188, 0.16827639126944577, 3.1465818383790514, 0.06360765876358557, 0.0009149437273282094, 0.18299072661395757, -0.19723479592409804, 1.721828580736172], [0.4675302896895148, -0.41092827735732884, -0.5011497929975784, -0.2026891217847023, 0.04008861242573329, -0.1475707314165903, 0.5647294578804626, -0.19594347190486916, 1.1778822553755015, -0.1730651633474936, 0.3127770651378696, -0.04071133077251005, -0.02749414575648871, 0.09933362334201924, -0.07402389915028455, -0.5679915144448952, 0.3170201663709278, 0.7461132972589282, -0.0071142498846946504, 2.546730055430067, 0.6392201053154085, -0.5613535777788812, 0.16390535548182955, -0.07277611917272876, 0.5982557207923509, -0.1782383086750629, 0.8683970673628704, 0.7400891161631996, -0.5383710544872217, -0.0625511490088284, 0.03983380199507929, 0.9375969415181714, 0.15980547542930088, 0.560261399990622, -0.1938085282042137, -0.3139669460798015, -0.5474972526130776, 0.33255795179664166, 0.4515399729567574, 0.08958157221388857, 0.6706540215891138, -0.06021906791205678, -0.09739715718866476, -0.31036227494394675, -0.22558507199701178, 0.8081778164853842, 0.09399194508813319, 0.8062161312969232, -0.10551457993115257, 0.21514190371569603, -0.7731445207339728, 0.9894180109741448, -0.25682987323995904, 0.2858238731349417, -0.01850075327440034, -0.20919383659798957, 0.424590836174266, -0.2641142151442156, 2.359358567061312, -0.03752410359348251, -0.566275655754429, -0.006684112816496719, 0.25918374668140814, 0.9507855995013782], [1.2805447484173704, -0.030024702476544186, -0.30163112231951267, 0.06808626697875009, -0.3990091262172895, 0.23112794358551533, 0.32605324987851864, -0.06420256465606454, 2.2179588293216432, 0.25548923319760247, -0.29244519321067386, 0.12557048578138336, 0.0732441751470101, 2.2604434008282204, 0.17023761615299565, -0.18589430363559792, 0.07819242479941324, 0.5413976949985445, -0.15165580011540117, 3.3889435474513068, -0.27718276793995417, -0.04953855244743633, 0.6466270130513239, -0.15827586472303581, -0.09127959382478577, -0.273168025265753, 1.4870705306353948, 1.7954498492589113, 0.22912648898893195, -0.6176343523075759, -0.21491736576804804, 1.8570907248814534, 0.10653029374889987, -0.1148286624847024, -0.20651144628311713, 0.03948225855670498, -0.030811243749334978, 0.10625742004254442, 0.26667526362645205, -0.12059560057484486, -0.3091285650736833, -0.20998414717364644, -0.2895736789572781, 0.18618839448018962, -0.1890556599803947, 0.10975929141999873, 0.2392870754391865, 0.36895080939900693, -0.012477431803558281, 0.5919614425140464, -0.25466879847137147, 3.061137086857525, 0.057937866221595316, 1.0973929335029942, -0.23372936588540427, -0.00406807275800016, -0.17939619279115637, -0.14436082236507755, 3.6463117436022756, 0.17538592205329184, -0.6483218001205987, -0.08326266425964957, 0.028526232002741677, 2.018350569894062], [0.957760507418002, -0.37757353354140066, 0.33245439318840997, 0.34359611045623145, 0.12182639077105357, -0.2788736946317932, 0.9460385540438663, -0.1006252739820463, 1.5650827440680461, -0.06999832088955983, 0.048707739861186185, 0.13877611617417057, -0.06751045521960712, 2.0567826857888423, 0.028974001213061734, -0.2844207183860149, 0.8334996536241063, 0.011009011241340079, -0.03235064428968202, 3.9172411032587426, -0.33406667493681547, -0.07730696522171601, 1.06244343231438, 0.16275576626006616, -0.42426316457297486, -0.030982759649482147, 0.7539607662119006, 2.0152436377347693, -0.3514858196115402, 0.1347259614596285, -0.32352736533940185, 0.8822791552179926, 0.08863470269445377, 0.0371725969626392, -0.0901219515475046, -0.6510142099683258, 0.18361709321156752, 0.15844675260266616, -0.10012312064103601, 0.015548125383644537, 0.46116457084973383, 0.044470187351057, -0.6273069152695988, 0.2970923285043916, -0.004760899455994756, -0.16634071935455852, -0.09666808117064983, 0.4735132668565504, 0.0734709447781837, 1.2287661535331447, 0.06997334832014364, 2.9957717578774576, 0.04787856669244861, 1.0444732850929355, 0.026259741043287873, -0.21670161275475675, -0.22293452667313368, -0.37659503608127304, 3.0701218451213905, -0.11298559707210386, -0.11783439510453765, 0.2451817243073573, 0.33041299256347256, 2.1718032728183587], [0.7845287702171488, -0.31101691850757845, -0.2484097810043624, -0.2665563918051185, -0.2959258015311775, -0.298543882412741, 0.19826153898757556, 0.0963939498904968, 1.7450698331560086, 0.05216858418339907, 0.11659990268172121, -0.1432760703019978, -0.27898723075082177, 1.1710055044453516, -0.24388682295636901, 0.10083652335099019, 0.16687683355399324, 0.38050102927548624, 0.085661954758285, 2.9981130425458966, 0.28464496049858296, -0.09937579628470115, 0.7470130575316517, 0.021680629555033533, 0.3125878408148177, -0.17743945593596192, 0.5726641198763545, 0.6509027579805738, 0.08817028948176232, -0.599388923489346, -0.39424930697707034, 0.6873624368270539, -0.009551183011267223, 0.07516305106350854, -0.44047752369706594, 0.09437180295544191, -0.03565857477666144, -0.2422000737897658, -0.31870594063790314, -0.07551128529446395, 0.2630824580793189, -0.0007350730798072175, 0.22616517662854854, -0.46303570674313715, 0.03970281074848798, 0.34692284168103327, 0.2356082853992037, 0.4236830156844879, 0.2676054910696608, 0.4201085562420076, 0.07096360690410236, 1.3488256471964328, -0.38164188241899394, 0.5308567596867612, 0.03210533748694647, -0.09980871881311504, -0.20934342288839788, -0.3631278636922481, 2.128187649920083, 0.04321507938473302, -0.40194302213459693, -0.013057187642162892, 0.028121216937020074, 1.1807845930062932], [0.28919957969292487, -0.10894454194204972, -0.41265452863874946, -0.1759004309017481, -0.09952639738896926, -0.15726722507620577, 0.2045203051985414, -0.1128672226951144, 0.2844679811748911, -0.053928354634077906, 0.2102999717214476, -0.34501414098592936, 0.054003670687948584, -0.3759036616837996, 0.007877652820982553, -0.21112832763567185, 0.34679360767500184, -0.19921738646233228, -0.33760772072752326, -0.046007897448009406, -0.0555109604056212, -0.09523199999161873, 0.0821555612536246, 0.06663097822189278, -0.33773324821619405, 0.08636374105038551, -0.2306662089672697, -0.24591404475387998, 0.14723088208188645, 0.11974944944890245, 0.4281105117687534, -0.7544448360424117, -0.03903193664142966, -0.21528387600450108, 0.22421703843646662, 0.2304004291425654, -0.17026838196485014, 0.13664667760312468, -0.2350085849682072, 0.05311528450630117, -0.28816730345528424, 0.34273524175222986, 0.2676003074806678, -0.1480073618472905, 0.16506052363937682, -0.12995405888514852, -0.24972926731030404, -0.30561245757924743, 0.3688905494886619, 0.15818661947938806, -0.029816470333524227, -0.35602790692495284, 0.014144339682209104, -0.06723697578962468, -0.047040995491459965, -0.2886843718614232, -0.43492954346860635, 0.050902271616290254, 0.11501711823853047, 0.18046948054929404, 0.02779953094503389, 0.059061408785920574, 0.15551004718116967, -0.18029254621201676], [0.5720574639376343, 0.05365380843056242, 0.21531983870338633, -0.10546708344356746, -0.17660037922019556, -0.09790138280221372, 0.26061827356281114, 0.06725704807317287, 1.6981236252622465, -0.19072101934651106, 0.4088777106504818, -0.05429048929260997, 0.13324705753194446, 0.8255742116299377, 0.058121167484927856, 0.08941699336972969, 0.4877719767697126, 0.18263948613849113, -0.1745949755886091, 2.3019296424462197, -0.347172825860181, -0.15121172265688768, 0.6859386458668787, -0.24127536422247198, -0.2914287647507543, -0.0441108799870004, 0.02383648332243916, 0.765787201945725, 0.08258846170948277, -0.7893989616624346, -0.38767034493055263, 1.0344431073568547, 0.2156661027887005, -0.3225882381487315, -0.31392637531283873, -0.0771424140378199, -0.03804701060347663, -0.2569783198446307, -0.2325125618336906, 0.15918831096594163, -0.22891634671359254, -0.2746340641668472, -0.19228722739193643, -0.08689292438381496, 0.30146013231468977, -0.3819934690560808, -0.1389990568424875, 0.3243590598807818, 0.23713253631153303, 0.365300792155855, -0.04583994615829045, 1.3574725894551132, -0.15523867910252384, 0.8956397963898891, 0.1779935515878987, -0.20976671468082853, -0.6574464671122753, -0.11526046495405987, 2.055462066001387, -0.4356885652256546, -0.8726034950957338, -0.10871807687414702, -0.0664966115089909, 1.6814950036070566], [1.1002901579445061, 0.1301859259964666, 0.18786112099726, -0.3955447858276085, -0.41627677136075586, -0.35902015297564294, 0.46367125862388275, -0.08855716163683593, 2.2475250777913702, 0.0017652964943115686, -0.2961345184982574, 0.20418327877114434, -0.22043253620571981, 2.273418623778679, -0.11968367278715619, -0.20179892095702812, 0.6126212332486545, 0.5389656955061944, -0.30470740495279464, 3.9664684866875204, -0.3141304714848622, -0.029444772502052435, 0.7307254771447567, 0.18728290253987404, -0.06250651267173246, -0.24051814511827052, 1.5899756089394999, 2.041383440194135, -0.21797646442676036, 0.3256500833696772, -0.06267198721574127, 1.240581002320784, -0.07220346467598988, -0.24211602171239063, 0.22597841191453036, 0.18458667734683556, 0.011923257672018515, -0.16504477142454627, -0.1854558470214872, 0.035989376634066116, 0.2839770359142285, 0.025243809899793187, -0.3169137430560387, -0.000926391133766081, -0.11409602151655245, -0.34313079508776956, -0.06857058849784367, 0.16560851694132978, 0.11778002452921438, 0.8156669649641632, 0.39984527478469245, 3.031354539626111, -0.4614602432919005, 1.0075105672916493, 0.02603564618634026, 0.11502882134658743, -0.2188949400710859, 0.0032261819415528047, 3.91046706166755, -0.14739027023030918, 0.01558322579731042, 0.19490088899968477, -0.05495468483593444, 2.0604060580909818], [0.4910655965484546, 0.017067844971210673, -0.27252480103386145, 0.08081852499384572, -0.03822091023447857, -0.31446400688505904, 0.6657928196734707, 0.17165599693491393, 1.4283920814575, -0.19316157815002558, -0.07503093138960952, 0.5733885043779162, 0.10613028415807989, 1.6382054327170432, -0.3612603629657481, 0.014271221875286944, 0.27015119257977077, 0.23491643825161063, -0.15038817565839452, 3.045392345106762, -0.3684776900950538, 0.28195692664194794, 0.8828037109805164, 0.17215308049822145, -0.09453370893521192, -0.12000276251489682, 1.3652061416804573, 1.8784659912671153, -0.16169203653369285, 0.14801341395428066, 0.061493602240587183, 1.4777123348977372, 0.11074329474318449, -0.021604536610042763, 0.013275633716623488, 0.04291081920817215, -0.370673408668024, -0.04492352321308395, -0.24556020703939005, -0.1177574236167369, -0.20542788648702112, -0.2174832906644037, -0.27565909530228194, -0.0729340466604567, 0.2703890126111277, -0.01308017049563567, 0.04273875182589422, 0.14930654115907455, 0.23528600693363463, 0.42675301629993334, -0.2314225291862271, 2.5326078110744583, 0.012423927146708804, 0.8669490025194693, 0.08389535928675049, 0.1933113538326123, -0.10563706361201647, 0.015806684185798395, 3.3206692596397973, -0.08891316272292463, -0.13793946017763223, 0.18087058237622272, -0.12861170246505177, 1.5760919515777303], [0.46929854143093314, -0.11052581154369107, 0.24260420150754733, 0.08227255704026548, -0.3025664798727823, -0.3585999840156541, 0.4143441109380384, -0.18186515774230166, 1.3038281637533133, -0.14731117689757997, 0.20330336216848366, -0.02118921085424153, -0.028112749011997003, 1.2016922074505167, 0.1280222598221329, 0.12488445009790673, 0.3379400698451883, 0.2594366210371008, -0.17600637444981096, 1.7963820023109225, -0.13553498128277588, 0.03764882905684464, 0.5005673434361121, -0.13778283571761968, -0.33827942911693226, 0.10644515569670275, 0.13084303597876207, 0.1261141555842322, -0.1843093712067933, -0.533359487875254, -0.16071580135825672, 0.5897137888092996, -0.16359697356750627, -0.26439527916192423, -0.36385183347984934, -0.06612551922881602, 0.14401727399959743, -0.2197172759759887, -0.11732663938763008, -0.2254876048977505, -0.34212511984585414, -0.3413441238345985, -0.16234610822599257, -0.12593108930651184, -0.007995803782333904, -0.5464957947428806, 0.17774813985999496, 0.2991545611127335, -0.16135533581427225, 0.16009745334867825, -0.10313276149838582, 0.887613221965737, -0.5024210792040346, 0.35929937865264006, 0.1520492404523503, 0.04938585628012353, -0.16070826033704821, -0.042503647439642654, 1.416579988631186, -0.3901814263573239, -0.7612401678772873, -0.1179617445753656, -0.26022107883344264, 1.1574560955322248], [0.3315274652858698, 0.2546270420648697, 0.6223280543607603, 0.5480942374186394, 0.1415107560687266, 0.065695031675612, 0.49197814485320107, 0.09060109988430155, 1.5279614506623198, 0.06474396007367282, 0.06382183745410176, 0.030646944786271182, -0.03148082990439395, 1.1206902727841208, -0.33185261774442615, -0.221083302783321, 0.24297850370294413, 0.2401717195411668, -0.2399977770455611, 2.5119647414035047, 0.3274120577395419, -0.02528905384629845, 0.7179384208616187, -0.13254827274412995, -0.12996738415103526, 0.43509818024896024, 1.0647917396223134, 1.0874821891974273, -0.27432815225652324, 0.2134928423715081, 0.19570392184366367, 1.0561898460760628, -0.1239326030485803, -0.06506044075095944, -0.06040323725113732, -0.34739207585120213, 0.050582973762874586, 0.013990199042341729, -0.03989009155039279, 0.15100888654693628, -0.35943905203236054, 0.0904296815230404, -0.19906907922266304, -0.07997609797854904, -0.1919018180193881, 0.2889181994057188, -0.2367909979455871, -0.011290773630888047, -0.20377683290491702, 0.9170621864698554, 0.495283192784151, 2.077554024621794, 0.22780169070472467, 0.6811573613333602, 0.03881509872042048, -0.04497446259025375, 0.06584829369692595, -0.09710307539497637, 2.8323279698540067, 0.11085050404547686, -0.14902267532513608, -0.030339716311202625, -0.27077859898086076, 1.8538998006296645], [0.8201730012829007, -0.481759988244209, -0.3900610457247648, -0.40384058756781616, 0.29126249364588647, -0.6198549396061249, 0.814816065876886, -0.046769264863757286, 1.794939931269034, -0.3304185384245495, -0.11925550311441717, -0.1511601414582054, -0.49658139290298053, 1.864448323899108, -0.15047774558371435, 0.15266292287789332, 0.760774290298373, 0.47275227403596914, 0.2315345434243012, 4.25820144845895, -0.2813093439526536, -0.6882787373023588, 0.859639322756852, -0.06924592786328691, -0.3454151909347099, 0.008461711971352525, 0.9816493433624824, 1.5304059317164134, -0.4253817451165187, 0.21914749336546163, -0.10529873895466141, 0.8733494159884931, 0.16932547334832768, -0.7369934537816788, -0.12466005175446195, -0.37966836457779957, -0.3328760553499018, -0.022575658045298774, -0.063334416218094, -0.4216737010741761, -0.5718459770269888, -0.2475147688003267, -0.31945966938976167, -0.19040194761340642, -0.04611380309473394, -0.7321262594370234, -0.1538269207136609, 0.7053533958943833, 0.14168860488345905, 1.0986080177796151, -0.4732167205998199, 2.4861681585527533, 0.3606536276715284, 0.7954796840828351, -0.15400944422621296, -0.12607820256377922, -0.04722646257414732, -0.0990553003742402, 3.077526324423376, -1.026610645636266, -0.08191149801942123, -0.27455023938408235, -1.1406098453144606, 2.0387882573281204], [0.9154113270380398, -0.13161484947408564, 0.03342584525944016, -0.30875648060011857, 0.19338868912254073, -0.3159368511880295, 0.5319369933343334, 0.01828274482685752, 1.7537914747481878, -0.16498362171559336, 0.13219149409353545, 0.5130953960740501, 0.04897743726245616, 1.7968451321226955, 0.10164960304374446, 0.11079354710090306, 0.5908801664065388, 0.6977231703692671, -0.03602489306402726, 2.9679909368703377, 0.2552530837022681, -0.32753785781212635, 1.2002951552189038, -0.008531030469386598, 0.17541213276491913, -0.1049140287583207, 1.5558165334828562, 1.9655588062206617, -0.39907575909264664, -0.05148762476134939, -0.024600835658353186, 1.4251989006623684, -0.15445226971175852, 0.10739076174661155, 0.04980865675864077, -0.4715832633450466, -0.31049803624920835, -0.12397846386109333, -0.1292182773772897, -0.14716626314693598, -0.212997338911019, -0.3247612888839664, -0.2892263595346033, 0.15912102244638068, 0.06004198774017266, 0.16417818204629106, -0.3553260406037954, 0.48720252776714296, -0.031910874424566235, 0.8148446311331531, -0.1334846830066886, 3.1462980733516903, 0.06802955242691555, 0.7432927307951572, -0.17739127022306486, 0.08593555855421908, -0.4284867496774427, 0.381035615109941, 3.303146378335724, -0.24722006232042434, -0.11699734802931444, -0.22344890895834457, 0.01883663000817579, 1.872484199127302], [-0.03900885837247264, -0.09346382334839969, -0.26733452545822756, -0.004056709455868729, 0.2499872836015333, 0.23898909679819294, -0.3444371539340293, -0.053307749504955385, -0.08898873849948725, 0.05542940080053828, -0.046171146081233294, 0.10552479786679482, -0.03680536422678129, -0.573678584286017, -0.005439317925958558, -0.16577737629137645, -0.5190141311460559, -0.053118130356737986, 0.053434382365718756, -0.33631639843881994, -0.25843792084454065, -0.03120363389923904, -0.06654639380869766, -0.18734178172187316, -0.5635266946003045, -0.18966865314417725, -0.26714082034121467, -0.21145362054475594, 0.4693598330232048, -0.14635824192023467, -0.1972417327756757, -0.49799480843574356, 0.3669391292341008, 0.32431872026935393, -0.3753679516001986, 0.4201445543617171, 0.5827031992738487, -0.03410294177345902, -0.15760126734794808, -0.2348456707197443, 0.17023477390302463, 0.25046598324697095, 0.7260333248226807, 0.20708574343118194, -0.033180569965875505, -0.31247251591001507, -0.3321381161467523, -0.07452230746589521, 0.5496468226290806, -0.4850894740467946, 0.3874635710750389, -0.2356690244784043, 0.3688465281441935, -0.6587446856406469, 0.13479410059617875, -0.10911643938164355, -0.18417587724089665, -0.22751199350673895, -0.33503212505079866, 0.01862116964556664, -0.3456544577101631, -0.09825363150031306, 0.11013271222308824, -0.3606617697640498], [0.6327183888517088, -0.5841587010468611, -0.11745641441383621, 0.0032733790881580966, -0.2830096206650092, -0.2921832400585812, 0.39597453901751545, -0.24906693325126028, 1.5899758102931187, 0.19598978063000294, -0.20435304927411443, -0.26004900031170897, 0.025352698210858386, 1.095265221228413, -0.44785252050420404, -0.08120040539768546, 0.261683341063022, 0.2749428064736242, -0.10867181458193809, 3.299802487450492, -0.5102729784661054, -0.3169654396614725, 0.3796692872799284, -0.4762957087194048, -0.35725173164687735, -0.009502276819205839, -0.24493656225085755, 0.6266839372865763, -0.3041183296504255, -0.31486319055587736, -0.5835170045435699, 0.46209389906308385, -0.12700730877596725, -0.7276568272755469, -0.28724559828960977, -0.12489569887689013, -0.2079604389256035, 0.034228962313398587, -0.27736621498364944, 0.18126459017078164, -0.47622746130516935, -0.17721154415038642, -0.06217712600322633, -0.1307985858100406, -0.17438729619437232, -0.41214487602253524, -0.17797746148700028, 0.2688915990024404, -0.17453042865563617, 0.1299087947307198, -0.23415081365974943, 2.2468784723488353, -0.0802407492768905, 0.5994420642265497, -0.2581205379646163, -0.044792945997940196, -0.14841904087655874, -0.45520116340762584, 1.4784393962021565, -0.19506715832938695, -0.4652523522062863, 0.15862582528751998, -0.6835131171453905, 1.340048274930338], [0.41076315428308974, 0.0030185593690372045, -0.4683591912524843, -0.11701868221841429, -0.3964406022170005, -0.5428173935425452, -0.3159288940055131, -0.1687841445842871, 1.1638514281819374, 0.09075927642087736, 0.09602940886396918, -0.5423651979098875, -0.02240416613592962, 0.4768416387931855, -0.054935582651308865, 0.12202003913226774, -0.04912488496686421, -0.03179946008399861, -0.3134876658288668, 1.7211345107945675, -0.5125268352939971, 0.3382777970903973, -0.032537932717114366, -0.1594634375806217, -0.3511585042316518, -0.14000203644954592, -0.14116422534157033, -0.01951317671320509, -0.29854916323908476, -0.4929082565463262, -0.4608625373844698, 0.41763060839104627, -0.27561974216477814, -0.5972385277870739, 0.028929327979651313, 0.04163702319057545, -0.16294377019943465, -0.28936434661144256, -0.0790530997486247, -0.048841533046226245, -0.07373630858645233, -0.13659504727165794, -0.32849551259423504, 0.06385188376860491, 0.07042895964786722, -0.5133644799583041, 0.02910425550817615, 0.283798814401539, -0.3894240072935769, -0.10454463940998991, -0.2018991969389338, 0.40558013822615063, -0.2420718506547248, 0.28205519440929844, 0.29395685750844225, 0.2025291747552586, -0.8850612117797271, 0.05403591850905324, 0.9930704694334911, -0.3577012337418677, -0.8354120627705262, -0.16607695128722208, -0.4586359228318886, 0.47426793249344185], [-0.15923539584572857, -0.2155058449798698, 0.02620782835079307, 0.012414558008681468, 0.2160410119132221, 0.20163800093270234, -0.16082305032225602, 0.08807842298509246, -0.2221793731798178, 0.10765389188383381, -0.1727205335452426, -0.09513760544206833, -0.006137537948349183, 0.05344145665990299, -0.004347982318656295, 0.0033962676884556667, 0.2944539799174807, -0.24257108508268077, -0.18356096814651543, -0.2651675951844157, -0.20334301063926744, -0.03151099759569452, 0.06637401522789771, -0.012606459337631729, -0.01839123114121416, -0.31832628385355943, -0.05848889316407553, -0.14099462145705913, 0.39636796148784026, -0.22017273864987466, -0.12176905238125144, 0.1315998482900309, 0.010936087810215989, 0.29146661089832593, 0.21879585139510116, 0.34662112061248374, 0.3908958471339211, -0.30826031038396884, 0.33863628186511613, -0.1479709090722969, -0.07846960201331524, -0.08813812302083163, 0.2591610023181013, 0.04954732689060572, 0.07399967035964927, 0.03213838070037487, -0.01680121132720525, -0.011438738643727927, 0.3869309102618597, -0.4003193549495701, 0.1014133546681478, 0.04949486393039327, 0.35332274673354586, 0.30104527054659447, -0.024287102576331068, 0.04897052866502527, 0.3618214694743299, -0.1024104934478286, -0.22564596407495452, 0.06850900301825752, -0.19411214645743016, 0.06626050676686684, 0.41148953318373954, 0.05340715598417072], [0.26227776237214456, -0.17123045546428925, -0.7692385168536215, -0.3201840431491732, -0.32077260067934044, 0.02810459355642454, 0.42918598992509965, -0.024719905263496395, 1.5603532543980079, 0.003974154229168766, 0.5143928758685757, -0.20414608868967074, -0.7092119014299204, 0.788133330198418, 0.0007822983036625935, -0.0891574772295955, 0.5091725121678732, 0.15688660623389183, -0.08282340477520607, 2.3629015258939647, -0.22948418426487532, -0.3289768004478873, 0.4494716739411746, -0.3719315359569145, -0.48993799089714496, 0.276481091792459, -0.10000853509425382, 0.7245701520056, -0.2454147240756473, -0.4728788896342897, 0.15020858366460277, 0.5409371896573317, -0.08699827105373545, -0.41003521960005573, 0.3197179149004913, -0.33615146218608755, -0.35004521454687054, -0.05361645269198709, -0.3269788498642566, -0.10886470626087215, -0.33775584189109276, -0.2232275053752093, -0.3943973019612826, -0.08437507181171996, -0.08889667770229467, -0.2622378343079632, -0.0013744289865118705, 0.27973559425307365, -0.046921780596891366, 0.06896633343324314, -0.06267607784801241, 1.0635800722451378, -0.2848814145502878, 0.30256889304283763, 0.01971311604216919, -0.2281968270897809, -0.609103483853193, -0.1973321169203792, 1.4379345604172125, 0.1007093613184572, -0.6889842437755412, -0.13640641938547746, 0.0946576754868107, 1.2042769338790889], [0.062095486634513565, -0.1985777779579704, -0.7630610846382283, -0.0784846806226854, -0.024712791079377804, 0.06104755574470574, 0.4296692342491845, 0.16725555622039906, 1.9302514023000046, 0.07275503525936855, 0.20843020029552192, -0.07931836900740455, -0.405908185065, 1.0835916198399158, -0.560037615027245, 0.186677855773361, 0.17483226707869384, 1.1628656436474984, -0.07168872908451698, 3.5107235254646803, 0.5676099134546491, -0.5884521437933677, 0.316125392354761, -0.11193594809685174, 0.42281261021245153, 0.37684129647762, 0.7989361477904444, 1.3045351660251734, 0.41375670788455987, -0.3551842301682593, -0.19004045215495075, 1.4943318618508348, -0.1959595967043939, 0.6588619378268861, 0.04026334087720484, -0.3773510420889581, -0.5745147253761295, 0.24126634171978564, -0.07454348197446722, 0.398447889702654, 0.2161874850077733, 0.2598703083349878, -0.4277395713206208, -0.13706256106347492, 0.09063174755083965, 0.5455851130505485, 0.17112385505833505, 0.6734512819900477, -0.39222078795258314, 0.7124700258218809, -0.2881990456026974, 1.6121057982789888, -0.17601793662527193, 0.7760536529086834, -0.1608714678525662, 0.042704058454529306, 0.28229017033890025, -0.39191895687535017, 3.0785430996652354, 0.03573789299183159, -0.494331675573322, 0.006300948709416254, 0.823235022651903, 1.7458324256171944], [0.13026310891060608, -0.09245153706323314, -0.01009576260943957, -0.08647201973241284, 0.015846301342422955, -0.08691162485744186, 0.26362427831652385, -0.06603060024834354, -0.11845490312207099, 0.4849640222849919, -0.09701552907152744, 0.12075355825057571, 0.23436874267386948, 0.41503951958931723, -0.20626859715285, 0.05067919504909794, -0.22840059479737732, 0.3176285714840215, -0.15057944939258544, 0.4583355096846478, -0.45735030852742753, -0.03147229924198509, -0.09867191102507261, 0.13371577828670328, -0.16775715127019183, 0.04463691484204982, -0.2865570074016962, 0.0892987726546941, -0.04465747360780474, 0.14759087170874324, -0.20072131062421492, 0.254037282650354, -0.13390239237738547, 0.4295477439866625, 0.1740572425691825, 0.4317522570784107, 0.25989040953772097, 0.15505695934388977, 0.04444160588030911, -0.08959006010379188, 0.03549719125433881, -0.17658148256977124, 0.03619708413477804, -0.047093009090881356, -0.35439606697518067, 0.06594302305740044, 0.07334021362249774, 0.07683392116023212, 0.08286079247346038, -0.2697205319849655, -0.15724827260141278, 0.40172152314848775, -0.0650894148806796, 0.26571325173379845, -0.09661220469974476, -0.014007538562141214, -0.5622223588991627, 0.028237681632985515, 0.388342776041353, -0.3251870908496428, -0.23765636268294849, 0.07785128915845275, 0.2586723995121805, 0.1580916651593459]], "b": [[0.47080381915670994, -0.6893569052768924, -0.6853370315269484, -0.3755027273369095, -0.6345128508072946, -0.9794917030542358, 0.6116786142026365, -0.015510313633680887, 0.7838237045444946, -0.014198310640230034, 0.2302684812106639, -0.024590134309768936, -0.2771644529931081, 1.3589282818410695, -0.13710571136305305, -1.3177495961040662e-05, 0.7748286746594988, 0.15191001266790002, 0.0, 3.5023011076654758, -0.7027165540280006, -0.004162287249122335, 0.705869008577181, 0.27738884103603273, -0.4492085460193486, -0.21360344877571455, 1.0385326934551116, 1.442435789734819, -0.8842509451457755, -0.11645940164697251, -0.4665535054724504, 0.9107726613632228, -0.7372091938960147, -1.0475754188319166, 0.36725375767481316, -0.5886738036003976, -0.636055842328376, -0.000143011245705049, -0.18824070674297746, -0.021022098903847163, -1.2353409320544713, -0.10677721718884642, -0.7702276811014853, -0.14529465644752204, 0.004494944272880273, -1.252963431234508, 0.0, 0.6484967011781766, -0.046888327828933846, 0.9864858635882882, -0.7275660991012587, 1.7431923731799934, -0.6922175888313656, 0.9043837210670075, 0.0, -0.09671035563249741, -0.47970758795820767, -0.2227812879798004, 2.311790101245984, -1.1534997853816096, 0.539461224011796, 0.006528096458186378, -1.2755052080520148, 1.1996497931994794]]}, {"w": [[0.09439948250935093, 0.031527396414536654, -0.1274863353665602, -0.10112045432667371, 0.21257599355342405, -0.17352702128603, 0.26871236133612525, 0.22528446565205637, 0.09566445234997406, -0.019987378534748558, -0.05166979738026209], [-0.9337363079019889, -0.17467584528546884, 0.06637343848994694, -0.2745065551609804, -0.08162499030316091, -0.3887117419981651, 0.02774850049698217, -0.49067638755325443, -0.2241305391936153, -0.35577048924153815, 